{"learner":{"attributes":{"scikit_learn":"{\"_estimator_type\": \"regressor\"}"},"feature_names":["home_p_off","home_p_def","home_l_off","home_l_def","away_p_off","away_p_def","away_l_off","away_l_def","diff_post_off","diff_post_def"],"feature_types":["float","float","float","float","float","float","float","float","float","float"],"gradient_booster":{"model":{"gbtree_model_param":{"num_parallel_tree":"1","num_trees":"100"},"iteration_indptr":[0,1,2,3,4,5,6,7,8,9,10,11,12,13,14,15,16,17,18,19,20,21,22,23,24,25,26,27,28,29,30,31,32,33,34,35,36,37,38,39,40,41,42,43,44,45,46,47,48,49,50,51,52,53,54,55,56,57,58,59,60,61,62,63,64,65,66,67,68,69,70,71,72,73,74,75,76,77,78,79,80,81,82,83,84,85,86,87,88,89,90,91,92,93,94,95,96,97,98,99,100],"tree_info":[0,0,0,0,0,0,0,0,0,0,0,0,0,0,0,0,0,0,0,0,0,0,0,0,0,0,0,0,0,0,0,0,0,0,0,0,0,0,0,0,0,0,0,0,0,0,0,0,0,0,0,0,0,0,0,0,0,0,0,0,0,0,0,0,0,0,0,0,0,0,0,0,0,0,0,0,0,0,0,0,0,0,0,0,0,0,0,0,0,0,0,0,0,0,0,0,0,0,0,0],"trees":[{"base_weights":[6.337012E-2,-2.6800493E-3,1.6701926E-1,1.01830944E-1,-3.1242272E-2,2.1512567E-1,-6.421296E-2,5.891073E-1,6.892028E-2,2.2099882E-1,-4.613843E-2,2.5021324E-1,-1.1507584E-1,-2.0548503E-1,1.5185952E-1,2.1000001E-1,2.3052871E-1,2.9224414E-2,1.6452758E-1,-2.9413702E-4,4.1007638E-1,-6.2403955E-2,1.807365E-1,4.918427E-1,2.3075864E-1,-1.7630795E-1,1.4646621E-1,-3.7848544E-1,-1.4918897E-2,-7.3598935E-3,2.9901513E-1,-3.211818E-1,2.6568013E-1,-3.4976173E-2,1.9478776E-1,1.8980941E-1,-7.389308E-2,3.1745124E-1,-3.4987703E-1,5.165551E-1,-4.5080912E-1,-5.7354987E-2,-3.8323852E-1,-7.495502E-2,2.893979E-1,-5.638983E-2,7E-1,1.523999E-1,2.930519E-1,2.1000001E-1,-1.8481787E-1,3.4286934E-1,3.8805798E-2,-3.906893E-1,-6.256537E-2,-1.7321801E-1,1.2817855E-1,-1.7589697E-1,6.3824095E-2,4.6194312E-1,2.2903621E-1,-1.3917513E-1,3.3975743E-2,1.7093533E-1,6.431771E-2,5.7911318E-2,-4.072938E-2,8.3054945E-2,-1.2709408E-2,3.7626565E-2,8.295071E-2,6.442589E-2,-2.6043627E-2,9.1042966E-2,2.1000001E-1,1.1478003E-1,-1.21455275E-1,2.1000001E-1,9.608373E-2,1.75554E-2,-1.4141878E-1,-2.6136367E-2,-7.7551167E-4,-1.4870003E-1,-3.286276E-2,-1.4441363E-2,-1.10035874E-1,-1.35056665E-2,1.2823324E-1,7.734864E-2,-1.361554E-1,7.3009595E-2,2.1000001E-1,2.1000001E-1,3.2554865E-2,3.4422673E-2,1.23210676E-1,8.362039E-2,-5.9206977E-2,-1.5622416E-2,1.04094096E-1,-3.5757083E-2,1.1921201E-1,-1.3368356E-1,-1.0417457E-1,1.1329451E-1,-5.9412055E-2,2.1000001E-1,-5.655747E-2,2.0470804E-2,8.576103E-2,-1.03732094E-1,-2.9985433E-2,-2.8503021E-2,3.2958873E-2,7.428453E-2,2.1000001E-1,7.9220355E-2,-6.8752123E-3],"categories":[],"categories_nodes":[],"categories_segments":[],"categories_sizes":[],"default_left":[0,0,0,0,0,0,0,0,0,0,0,0,0,0,0,0,0,0,0,0,0,0,0,0,0,0,0,0,0,0,0,0,0,0,0,0,0,0,0,0,0,0,0,0,0,0,0,0,0,0,0,0,0,0,0,0,0,0,0,0,0,0,0,0,0,0,0,0,0,0,0,0,0,0,0,0,0,0,0,0,0,0,0,0,0,0,0,0,0,0,0,0,0,0,0,0,0,0,0,0,0,0,0,0,0,0,0,0,0,0,0,0,0,0,0,0,0,0,0],"id":0,"left_children":[1,3,5,7,9,11,13,15,17,19,21,23,25,27,29,-1,31,33,35,37,39,41,43,45,47,49,51,53,55,57,59,61,63,65,67,69,71,73,75,77,79,81,83,85,87,89,91,93,95,-1,97,99,101,103,105,107,109,111,113,115,117,-1,-1,-1,-1,-1,-1,-1,-1,-1,-1,-1,-1,-1,-1,-1,-1,-1,-1,-1,-1,-1,-1,-1,-1,-1,-1,-1,-1,-1,-1,-1,-1,-1,-1,-1,-1,-1,-1,-1,-1,-1,-1,-1,-1,-1,-1,-1,-1,-1,-1,-1,-1,-1,-1,-1,-1,-1,-1],"loss_changes":[7.9798883E2,2.1252446E2,5.046775E2,2.4501714E2,2.1010524E2,4.3514282E2,2.3854932E2,5.9309814E1,5.4325607E1,1.3046606E2,1.9484692E2,1.594707E2,5.780756E1,1.5577368E2,7.239386E1,0E0,6.393114E0,1.0754066E2,2.5328758E1,1.5980368E2,1.5436368E2,7.978369E1,9.816211E1,5.716329E2,1.533252E2,2.2949493E1,1.4471122E1,9.524292E0,5.0977764E1,1.7826908E1,1.820163E1,1.2886617E0,4.6554546E0,1.6757712E2,5.5028145E1,2.1162064E1,1.5227766E0,5.854515E0,2.7738235E1,7.896414E1,1.9738083E0,7.907587E1,2.342762E1,8.232855E0,1.1446478E2,1.4892426E2,2.1861572E0,4.1120877E2,3.6714734E2,0E0,1.6899124E1,4.1165352E-1,2.5178001E1,5.534088E0,5.6393495E0,1.89795E1,1.115366E1,5.6578856E0,7.650327E0,2.5710716E1,9.937798E0,0E0,0E0,0E0,0E0,0E0,0E0,0E0,0E0,0E0,0E0,0E0,0E0,0E0,0E0,0E0,0E0,0E0,0E0,0E0,0E0,0E0,0E0,0E0,0E0,0E0,0E0,0E0,0E0,0E0,0E0,0E0,0E0,0E0,0E0,0E0,0E0,0E0,0E0,0E0,0E0,0E0,0E0,0E0,0E0,0E0,0E0,0E0,0E0,0E0,0E0,0E0,0E0,0E0,0E0,0E0,0E0,0E0,0E0],"parents":[2147483647,0,0,1,1,2,2,3,3,4,4,5,5,6,6,7,7,8,8,9,9,10,10,11,11,12,12,13,13,14,14,16,16,17,17,18,18,19,19,20,20,21,21,22,22,23,23,24,24,25,25,26,26,27,27,28,28,29,29,30,30,31,31,32,32,33,33,34,34,35,35,36,36,37,37,38,38,39,39,40,40,41,41,42,42,43,43,44,44,45,45,46,46,47,47,48,48,50,50,51,51,52,52,53,53,54,54,55,55,56,56,57,57,58,58,59,59,60,60],"right_children":[2,4,6,8,10,12,14,16,18,20,22,24,26,28,30,-1,32,34,36,38,40,42,44,46,48,50,52,54,56,58,60,62,64,66,68,70,72,74,76,78,80,82,84,86,88,90,92,94,96,-1,98,100,102,104,106,108,110,112,114,116,118,-1,-1,-1,-1,-1,-1,-1,-1,-1,-1,-1,-1,-1,-1,-1,-1,-1,-1,-1,-1,-1,-1,-1,-1,-1,-1,-1,-1,-1,-1,-1,-1,-1,-1,-1,-1,-1,-1,-1,-1,-1,-1,-1,-1,-1,-1,-1,-1,-1,-1,-1,-1,-1,-1,-1,-1,-1,-1],"split_conditions":[1.6617647E0,1.3679922E0,2.3823528E0,1.1923077E0,1.2960322E0,9.115258E-1,2.278281E0,1.4413948E0,1.6977416E0,1.5815167E0,1.7777778E0,1E0,1.5982419E0,1.8905259E0,1.8148888E0,2.1000001E-1,1.6048117E0,1.7794118E0,2.067901E0,1.3283582E0,1.8497095E0,4.909308E-1,1.4E0,2.1359944E0,1.6138669E0,9.767442E-1,1.4558823E0,2.4211383E0,1.9594672E0,2.4211383E0,2.0106614E0,2.053791E0,1.5E0,1.1764706E0,-1.037631E-1,1.707102E0,1.6674212E0,1.3529412E0,1.5980214E0,1.6727139E0,1.4230769E0,1.7224865E0,1.4413948E0,5.06024E-1,1.6451169E0,1.8088933E0,1.4371266E0,-2.048192E-1,1.6617647E0,2.1000001E-1,2.3599138E0,2.4619546E0,1.7666961E0,1.9721587E0,-2.804729E-1,1.9474189E0,4.81927E-2,-6.59114E-1,-6.875673E-1,2.5639954E0,1.029296E-1,-1.3917513E-1,3.3975743E-2,1.7093533E-1,6.431771E-2,5.7911318E-2,-4.072938E-2,8.3054945E-2,-1.2709408E-2,3.7626565E-2,8.295071E-2,6.442589E-2,-2.6043627E-2,9.1042966E-2,2.1000001E-1,1.1478003E-1,-1.21455275E-1,2.1000001E-1,9.608373E-2,1.75554E-2,-1.4141878E-1,-2.6136367E-2,-7.7551167E-4,-1.4870003E-1,-3.286276E-2,-1.4441363E-2,-1.10035874E-1,-1.35056665E-2,1.2823324E-1,7.734864E-2,-1.361554E-1,7.3009595E-2,2.1000001E-1,2.1000001E-1,3.2554865E-2,3.4422673E-2,1.23210676E-1,8.362039E-2,-5.9206977E-2,-1.5622416E-2,1.04094096E-1,-3.5757083E-2,1.1921201E-1,-1.3368356E-1,-1.0417457E-1,1.1329451E-1,-5.9412055E-2,2.1000001E-1,-5.655747E-2,2.0470804E-2,8.576103E-2,-1.03732094E-1,-2.9985433E-2,-2.8503021E-2,3.2958873E-2,7.428453E-2,2.1000001E-1,7.9220355E-2,-6.8752123E-3],"split_indices":[3,1,7,6,5,8,4,5,0,1,2,7,5,0,0,0,0,7,5,2,0,8,7,1,5,7,7,1,4,4,1,5,2,7,8,4,4,3,4,0,3,0,5,9,1,0,4,8,2,0,0,0,5,4,8,1,9,9,9,4,8,0,0,0,0,0,0,0,0,0,0,0,0,0,0,0,0,0,0,0,0,0,0,0,0,0,0,0,0,0,0,0,0,0,0,0,0,0,0,0,0,0,0,0,0,0,0,0,0,0,0,0,0,0,0,0,0,0,0],"split_type":[0,0,0,0,0,0,0,0,0,0,0,0,0,0,0,0,0,0,0,0,0,0,0,0,0,0,0,0,0,0,0,0,0,0,0,0,0,0,0,0,0,0,0,0,0,0,0,0,0,0,0,0,0,0,0,0,0,0,0,0,0,0,0,0,0,0,0,0,0,0,0,0,0,0,0,0,0,0,0,0,0,0,0,0,0,0,0,0,0,0,0,0,0,0,0,0,0,0,0,0,0,0,0,0,0,0,0,0,0,0,0,0,0,0,0,0,0,0,0],"sum_hessian":[1.1656095E5,7.119383E4,4.536713E4,1.5280164E4,5.5913664E4,3.755427E4,7.81286E3,9.6566095E2,1.4314504E4,3.1170967E3,5.2796566E4,3.3947242E4,3.6070276E3,4.724165E3,3.0886948E3,6.4140717E2,3.2425378E2,1.0115771E4,4.1987314E3,1.4366573E3,1.6804393E3,4.9265277E4,3.5312896E3,2.5277595E3,3.1419482E4,2.9230178E3,6.840098E2,2.4756897E3,2.2484753E3,1.4839937E3,1.6047013E3,1.8934528E1,3.0531927E2,7.2897935E3,2.8259783E3,3.796373E3,4.0235873E2,7.526475E2,6.840098E2,1.4958278E3,1.8461165E2,4.850316E4,7.6211475E2,1.0532332E3,2.4780564E3,1.1905084E3,1.3372511E3,1.3916878E4,1.7502605E4,2.6034977E1,2.896983E3,2.4141524E2,4.425946E2,2.3833838E3,9.2305824E1,1.0674341E3,1.1810413E3,4.4022778E2,1.0437659E3,4.8046365E2,1.1242377E3,1.4200896E1,4.733632E0,4.2602688E1,2.6271658E2,2.2342744E3,5.055519E3,2.0993657E3,7.2661255E2,2.1798376E3,1.6165354E3,1.6567713E1,3.8579102E2,7.408134E2,1.183408E1,4.733632E1,6.366735E2,5.964376E2,8.993901E2,7.100448E0,1.775112E2,3.1424217E4,1.7078945E4,5.3963403E2,2.2248071E2,9.6566095E2,8.75722E1,7.242457E2,1.7538107E3,6.650753E2,5.2543317E2,1.183408E1,1.325417E3,8.1181793E2,1.3105061E4,6.958439E3,1.0544165E4,7.573811E1,2.8212446E3,2.366816E0,2.3904842E2,3.076861E2,1.3490851E2,1.0484995E3,1.3348843E3,2.1301344E1,7.100448E1,1.183408E1,1.0556E3,8.567874E2,3.2425378E2,1.3490851E2,3.0531927E2,2.3431479E2,8.094511E2,2.6034976E2,2.2011389E2,9.869623E2,1.3727533E2],"tree_param":{"num_deleted":"0","num_feature":"10","num_nodes":"119","size_leaf_vector":"1"}},{"base_weights":[5.2472033E-2,-2.7283088E-3,1.3491206E-1,8.3156034E-2,-2.716817E-2,1.752774E-1,-4.3547872E-2,3.704606E-1,5.0687548E-2,1.7509146E-1,-4.010009E-2,2.045727E-1,-8.413634E-2,-1.8090963E-1,1.24669716E-1,5.414452E-1,1.6316234E-1,3.107813E-2,1.9210768E-1,-2.465699E-3,3.1078067E-1,-5.427287E-2,1.4319552E-1,1.7515838E-1,3.1537902E-1,-1.3891293E-1,1.2764573E-1,-3.7691793E-1,-1.0468995E-2,9.1483835E-3,2.3770244E-1,5.290208E-1,6.569494E-1,-3.1138673E-1,1.8314701E-1,-9.249931E-3,1.4266445E-1,3.2401586E-1,4.1634906E-2,2.452268E-1,-3.3395666E-1,3.815725E-1,-4.4424328E-1,-4.677273E-2,-2.540125E-1,-6.550322E-2,2.2281303E-1,3.865444E-1,1.512981E-1,4.95278E-1,1.05217285E-1,-1.6095255E-1,2.7580345E-1,1.0570098E-1,6.183139E-1,-4.297657E-1,-3.2198486E-1,-7.635581E-2,1.2540554E-1,-2.3267823E-1,5.053126E-2,2.6570526E-1,1.3159634E-2,1.5905431E-1,8.375086E-2,2.0728306E-1,8.380176E-2,-1.4233832E-1,5.1285006E-2,5.9167713E-2,-1.0740686E-1,6.732059E-3,-1.0713411E-1,6.403051E-2,2.2808319E-2,8.3172634E-2,1.16262786E-1,-3.6461413E-2,7.0534766E-2,7.01819E-2,2.1000001E-1,8.6707704E-2,-1.17907636E-1,1.8228199E-1,7.77962E-2,1.5009685E-2,-1.4027825E-1,-4.065061E-2,-8.363968E-3,-1.4182666E-1,-3.7362967E-2,-1.2483175E-2,-1.055635E-1,4.8233294E-3,1.0242676E-1,-1.5414956E-2,2.1000001E-1,3.1870957E-2,8.432004E-2,6.6554554E-2,1.8083335E-1,2.1000001E-1,1.580765E-2,6.026549E-2,-5.3383708E-2,1.6974904E-1,-4.725085E-3,7.932525E-2,3.4392595E-3,-1.03607126E-1,2.0918187E-1,-5.033475E-3,-1.2938188E-1,-9.9035755E-2,4.9029678E-2,8.561231E-2,-3.406668E-2,8.754604E-3,7.4252725E-2,-8.1210665E-2,-8.20665E-3,-3.560802E-2,2.5786934E-2,1.9620371E-1,7.556836E-2,-1.7879633E-2,2.215936E-2],"categories":[],"categories_nodes":[],"categories_segments":[],"categories_sizes":[],"default_left":[0,0,0,0,0,0,0,0,0,0,0,0,0,0,0,0,0,0,0,0,0,0,0,0,0,0,0,0,0,0,0,0,0,0,0,0,0,0,0,0,0,0,0,0,0,0,0,0,0,0,0,0,0,0,0,0,0,0,0,0,0,0,0,0,0,0,0,0,0,0,0,0,0,0,0,0,0,0,0,0,0,0,0,0,0,0,0,0,0,0,0,0,0,0,0,0,0,0,0,0,0,0,0,0,0,0,0,0,0,0,0,0,0,0,0,0,0,0,0,0,0,0,0,0,0,0,0],"id":1,"left_children":[1,3,5,7,9,11,13,15,17,19,21,23,25,27,29,31,33,35,37,39,41,43,45,47,49,51,53,55,57,59,61,63,65,67,69,71,73,75,77,79,81,83,85,87,89,91,93,95,97,99,101,103,105,107,109,111,113,115,117,119,121,123,125,-1,-1,-1,-1,-1,-1,-1,-1,-1,-1,-1,-1,-1,-1,-1,-1,-1,-1,-1,-1,-1,-1,-1,-1,-1,-1,-1,-1,-1,-1,-1,-1,-1,-1,-1,-1,-1,-1,-1,-1,-1,-1,-1,-1,-1,-1,-1,-1,-1,-1,-1,-1,-1,-1,-1,-1,-1,-1,-1,-1,-1,-1,-1,-1],"loss_changes":[5.409695E2,1.494549E2,3.4343732E2,1.47121E2,1.4498839E2,2.9549536E2,2.0324734E2,5.6673355E1,3.9298107E1,8.025828E1,1.3535138E2,1.1381067E2,4.579333E1,1.6175598E2,5.1629078E1,9.1119385E-1,6.935299E0,5.601927E1,3.4239765E1,1.1864358E2,1.0109479E2,7.243596E1,6.215133E1,1.3919623E2,2.7697723E2,2.8703846E1,8.6713915E0,6.3995056E0,2.3204521E1,1.959196E1,1.2562935E1,8.306885E-2,8.4741974E-1,2.415595E0,5.37792E0,1.00816895E2,1.5568237E1,2.6245956E0,2.5515228E1,4.9345512E0,2.285347E1,4.756221E1,1.8969536E0,7.813355E1,4.9501335E1,7.0564084E0,6.637514E1,3.8956006E2,1.450534E2,1.1590094E2,1.1446925E2,1.8346405E1,1.3419398E1,1.1631421E1,2.8681517E0,7.053528E-1,4.429825E0,2.3519905E1,9.938148E0,2.226019E0,1.0030441E1,9.364288E0,9.8781717E-1,0E0,0E0,0E0,0E0,0E0,0E0,0E0,0E0,0E0,0E0,0E0,0E0,0E0,0E0,0E0,0E0,0E0,0E0,0E0,0E0,0E0,0E0,0E0,0E0,0E0,0E0,0E0,0E0,0E0,0E0,0E0,0E0,0E0,0E0,0E0,0E0,0E0,0E0,0E0,0E0,0E0,0E0,0E0,0E0,0E0,0E0,0E0,0E0,0E0,0E0,0E0,0E0,0E0,0E0,0E0,0E0,0E0,0E0,0E0,0E0,0E0,0E0,0E0,0E0],"parents":[2147483647,0,0,1,1,2,2,3,3,4,4,5,5,6,6,7,7,8,8,9,9,10,10,11,11,12,12,13,13,14,14,15,15,16,16,17,17,18,18,19,19,20,20,21,21,22,22,23,23,24,24,25,25,26,26,27,27,28,28,29,29,30,30,31,31,32,32,33,33,34,34,35,35,36,36,37,37,38,38,39,39,40,40,41,41,42,42,43,43,44,44,45,45,46,46,47,47,48,48,49,49,50,50,51,51,52,52,53,53,54,54,55,55,56,56,57,57,58,58,59,59,60,60,61,61,62,62],"right_children":[2,4,6,8,10,12,14,16,18,20,22,24,26,28,30,32,34,36,38,40,42,44,46,48,50,52,54,56,58,60,62,64,66,68,70,72,74,76,78,80,82,84,86,88,90,92,94,96,98,100,102,104,106,108,110,112,114,116,118,120,122,124,126,-1,-1,-1,-1,-1,-1,-1,-1,-1,-1,-1,-1,-1,-1,-1,-1,-1,-1,-1,-1,-1,-1,-1,-1,-1,-1,-1,-1,-1,-1,-1,-1,-1,-1,-1,-1,-1,-1,-1,-1,-1,-1,-1,-1,-1,-1,-1,-1,-1,-1,-1,-1,-1,-1,-1,-1,-1,-1,-1,-1,-1,-1,-1,-1],"split_conditions":[1.6617647E0,1.3679922E0,2.278281E0,1.2352941E0,1.2960322E0,8.769647E-1,2.278281E0,1.5195073E0,1.8382353E0,1.5815167E0,1.7777778E0,1.8547444E0,1.6138669E0,1.8293015E0,1.7058823E0,1.453964E0,1.6048117E0,1.5490196E0,1.5195073E0,1.3283582E0,1.8497095E0,3.288014E-1,1.584025E0,1E0,1.7115384E0,1.4116895E0,2.8497097E0,2.012975E0,2.0946074E0,2.3395057E0,2.4415464E0,1.6823587E0,1.7316285E0,2.053791E0,1.0784314E0,1.9172444E0,1.5102041E0,-4.763356E-1,-6.59114E-1,1.3529412E0,1.5980214E0,1.6427139E0,1.4230769E0,-8.812228E-1,1.4413948E0,5.06024E-1,1.7064551E0,2.1359944E0,1.7686404E0,1.686174E0,1.7205882E0,2.3599138E0,1.0576923E0,1.4705882E0,1.6294919E0,-5.300261E-1,2.4705882E0,2.0558527E0,2.523179E0,2.2205882E0,-6.875673E-1,-1.0008887E0,-1.363636E-1,1.5905431E-1,8.375086E-2,2.0728306E-1,8.380176E-2,-1.4233832E-1,5.1285006E-2,5.9167713E-2,-1.0740686E-1,6.732059E-3,-1.0713411E-1,6.403051E-2,2.2808319E-2,8.3172634E-2,1.16262786E-1,-3.6461413E-2,7.0534766E-2,7.01819E-2,2.1000001E-1,8.6707704E-2,-1.17907636E-1,1.8228199E-1,7.77962E-2,1.5009685E-2,-1.4027825E-1,-4.065061E-2,-8.363968E-3,-1.4182666E-1,-3.7362967E-2,-1.2483175E-2,-1.055635E-1,4.8233294E-3,1.0242676E-1,-1.5414956E-2,2.1000001E-1,3.1870957E-2,8.432004E-2,6.6554554E-2,1.8083335E-1,2.1000001E-1,1.580765E-2,6.026549E-2,-5.3383708E-2,1.6974904E-1,-4.725085E-3,7.932525E-2,3.4392595E-3,-1.03607126E-1,2.0918187E-1,-5.033475E-3,-1.2938188E-1,-9.9035755E-2,4.9029678E-2,8.561231E-2,-3.406668E-2,8.754604E-3,7.4252725E-2,-8.1210665E-2,-8.20665E-3,-3.560802E-2,2.5786934E-2,1.9620371E-1,7.556836E-2,-1.7879633E-2,2.215936E-2],"split_indices":[3,1,5,6,5,8,4,5,6,1,2,5,5,0,2,4,0,2,0,2,0,8,5,7,6,9,1,4,4,4,0,0,0,5,3,4,7,9,9,3,4,0,3,9,5,9,1,1,4,0,7,0,7,7,5,8,3,1,1,3,9,8,9,0,0,0,0,0,0,0,0,0,0,0,0,0,0,0,0,0,0,0,0,0,0,0,0,0,0,0,0,0,0,0,0,0,0,0,0,0,0,0,0,0,0,0,0,0,0,0,0,0,0,0,0,0,0,0,0,0,0,0,0,0,0,0,0],"split_type":[0,0,0,0,0,0,0,0,0,0,0,0,0,0,0,0,0,0,0,0,0,0,0,0,0,0,0,0,0,0,0,0,0,0,0,0,0,0,0,0,0,0,0,0,0,0,0,0,0,0,0,0,0,0,0,0,0,0,0,0,0,0,0,0,0,0,0,0,0,0,0,0,0,0,0,0,0,0,0,0,0,0,0,0,0,0,0,0,0,0,0,0,0,0,0,0,0,0,0,0,0,0,0,0,0,0,0,0,0,0,0,0,0,0,0,0,0,0,0,0,0,0,0,0,0,0,0],"sum_hessian":[1.18874555E5,7.120077E4,4.767378E4,1.5772407E4,5.5428367E4,3.8879707E4,8.794071E3,1.6004106E3,1.4171997E4,3.3302102E3,5.2098156E4,3.4934773E4,3.9449346E3,4.840984E3,3.9530874E3,8.7613855E2,7.242721E2,1.244727E4,1.7247278E3,1.4429755E3,1.8872349E3,4.83596E4,3.7385564E3,2.7608484E4,7.3262886E3,3.1345417E3,8.103928E2,2.2510476E3,2.5899365E3,1.9555566E3,1.9975308E3,7.960863E2,8.005225E1,2.8679417E1,6.955927E2,9.143619E3,3.3036497E3,9.184437E2,8.06284E2,8.2602423E2,6.1695123E2,1.7259066E3,1.6132823E2,4.6610625E4,1.7489757E3,1.0324379E3,2.7061187E3,2.798698E3,2.4809787E4,3.9466172E3,3.3796711E3,2.9769473E3,1.5759447E2,7.7686365E2,3.352921E1,1.1438225E3,1.1072251E3,1.7444667E3,8.4547E2,2.850726E2,1.670484E3,1.7758771E3,2.2165369E2,7.912899E2,4.7964E0,7.267955E1,7.3727026E0,2.1445267E1,7.234149E0,6.7857495E2,1.7017757E1,8.381048E3,7.6257166E2,1.601062E3,1.7025878E3,5.320602E2,3.863835E2,4.3760226E2,3.6868176E2,8.114248E2,1.4599445E1,5.3093678E1,5.6385754E2,6.04417E2,1.1214896E3,7.226199E0,1.5410202E2,8.181313E3,3.8429312E4,6.493031E2,1.0996726E3,9.5399054E2,7.844734E1,9.869717E2,1.719147E3,1.1771089E3,1.6215892E3,1.8416543E4,6.393243E3,1.1146165E3,2.8320007E3,2.520217E2,3.1276497E3,1.33051E2,2.8438962E3,7.853253E1,7.906194E1,2.8874478E2,4.8811887E2,2.2836807E0,3.1245527E1,4.203311E0,1.1396191E3,1.0892914E3,1.7933718E1,1.6204752E2,1.5824191E3,4.7353802E2,3.7193198E2,2.4026012E2,4.481249E1,2.8875635E2,1.3817277E3,5.9400425E1,1.7164766E3,1.0082599E2,1.2082769E2],"tree_param":{"num_deleted":"0","num_feature":"10","num_nodes":"127","size_leaf_vector":"1"}},{"base_weights":[4.294812E-2,1.7792475E-4,1.1455336E-1,-2.5344515E-2,4.9997505E-2,1.4629589E-1,-3.506673E-2,-3.3611324E-2,4.391835E-1,8.6594366E-2,-8.59668E-2,1.7514214E-1,-4.8555944E-2,-1.5503964E-1,1.0680798E-1,-4.3348607E-2,2.000461E-1,4.6294132E-1,-1.4146362E-1,5.866998E-2,2.7071995E-1,-3.8244608E-1,7.001488E-4,2.9920998E-1,1.5800034E-1,-7.203228E-2,2.9046762E-1,-3.5482717E-1,-1.32358875E-2,1.7935354E-2,1.8335134E-1,3.792249E-2,-7.078184E-2,2.746618E-1,1.4012119E-1,5.4616576E-1,3.4620464E-1,-6.3666776E-2,-2.5126928E-1,2.0736934E-1,1.5938424E-2,7.065404E-2,3.7269834E-1,-4.6095005E-1,-1.5753454E-1,1.18408695E-1,-8.732002E-2,5.703331E-1,7.274899E-2,1.4276873E-1,3.577364E-1,3.6239862E-1,-9.3773015E-2,-2.8161816E-2,3.532883E-1,-4.1987318E-1,-2.92841E-1,-1.222871E-1,6.877591E-2,-2.0368701E-1,5.434087E-2,2.7731255E-1,1.3825431E-1,-2.6707647E-3,4.1024692E-2,3.4720387E-2,-2.3698865E-2,8.693977E-2,3.0910568E-2,6.3574545E-2,3.1768337E-2,1.5126291E-1,2.1000001E-1,1.504979E-1,8.412972E-2,-5.5056963E-2,4.337059E-2,-1.2667531E-1,-2.6616931E-2,7.672495E-2,-8.118544E-2,-2.699156E-4,6.972297E-2,4.599446E-2,-8.3725795E-2,2.1000001E-1,9.218381E-2,1.01139985E-1,-1.4343448E-1,-2.7012134E-2,-1.4622322E-1,-1.4779156E-1,4.924978E-2,-3.395452E-2,9.420992E-2,-3.2048482E-2,1.9962613E-1,-5.676486E-2,4.2627875E-2,8.856746E-2,3.5964828E-2,-8.805992E-2,1.2403671E-1,-5.7322856E-2,1.2945528E-1,1.1304053E-1,-3.2135855E-2,-1.2587947E-1,7.901049E-3,7.771975E-2,2.0234051E-1,-1.3543834E-1,-1.1525038E-1,-9.076246E-2,3.3117723E-2,1.3611281E-1,-5.2568533E-2,-3.411971E-2,3.029337E-2,-7.80731E-2,-1.6752195E-2,-1.3209865E-3,3.6104064E-2,-5.124871E-2,9.553212E-2,4.6514038E-2,-1.5960338E-2],"categories":[],"categories_nodes":[],"categories_segments":[],"categories_sizes":[],"default_left":[0,0,0,0,0,0,0,0,0,0,0,0,0,0,0,0,0,0,0,0,0,0,0,0,0,0,0,0,0,0,0,0,0,0,0,0,0,0,0,0,0,0,0,0,0,0,0,0,0,0,0,0,0,0,0,0,0,0,0,0,0,0,0,0,0,0,0,0,0,0,0,0,0,0,0,0,0,0,0,0,0,0,0,0,0,0,0,0,0,0,0,0,0,0,0,0,0,0,0,0,0,0,0,0,0,0,0,0,0,0,0,0,0,0,0,0,0,0,0,0,0,0,0,0,0,0,0],"id":2,"left_children":[1,3,5,7,9,11,13,15,17,19,21,23,25,27,29,31,33,35,37,39,41,43,45,47,49,51,53,55,57,59,61,63,65,67,69,71,73,75,77,79,81,83,85,87,89,91,93,95,97,99,101,103,105,107,109,111,113,115,117,119,121,123,125,-1,-1,-1,-1,-1,-1,-1,-1,-1,-1,-1,-1,-1,-1,-1,-1,-1,-1,-1,-1,-1,-1,-1,-1,-1,-1,-1,-1,-1,-1,-1,-1,-1,-1,-1,-1,-1,-1,-1,-1,-1,-1,-1,-1,-1,-1,-1,-1,-1,-1,-1,-1,-1,-1,-1,-1,-1,-1,-1,-1,-1,-1,-1,-1],"loss_changes":[3.704912E2,9.6302536E1,2.1485345E2,1.9233632E2,1.2767162E2,2.09776E2,1.3479688E2,1.1196356E2,1.2146317E1,1.0392604E2,1.3982661E2,6.908899E1,3.8330074E1,1.21555725E2,2.4680931E1,1.0532363E2,8.764488E0,7.986969E0,2.846107E-1,1.1154376E2,5.428296E1,2.1661118E1,4.3648266E1,2.4218341E2,8.6848816E1,4.2558205E1,6.253481E0,7.05867E0,2.2461916E1,1.3567372E1,8.222168E0,5.517173E1,5.412027E1,2.245575E0,2.6655846E0,4.5670776E0,3.4685059E0,5.7402295E-1,3.5867262E-1,9.068724E1,4.970826E1,2.6060644E1,4.1363403E1,1.2653595E1,7.0808387E0,5.0477104E1,2.50548E1,1.1567291E2,3.9096775E1,9.2571106E1,7.354117E1,8.29917E0,2.6974968E1,1.1266644E0,7.7123337E0,8.0422974E-1,3.6138535E0,3.2952316E1,8.436881E0,1.9694614E0,5.599306E0,1.1688404E1,4.2495766E0,0E0,0E0,0E0,0E0,0E0,0E0,0E0,0E0,0E0,0E0,0E0,0E0,0E0,0E0,0E0,0E0,0E0,0E0,0E0,0E0,0E0,0E0,0E0,0E0,0E0,0E0,0E0,0E0,0E0,0E0,0E0,0E0,0E0,0E0,0E0,0E0,0E0,0E0,0E0,0E0,0E0,0E0,0E0,0E0,0E0,0E0,0E0,0E0,0E0,0E0,0E0,0E0,0E0,0E0,0E0,0E0,0E0,0E0,0E0,0E0,0E0,0E0,0E0,0E0],"parents":[2147483647,0,0,1,1,2,2,3,3,4,4,5,5,6,6,7,7,8,8,9,9,10,10,11,11,12,12,13,13,14,14,15,15,16,16,17,17,18,18,19,19,20,20,21,21,22,22,23,23,24,24,25,25,26,26,27,27,28,28,29,29,30,30,31,31,32,32,33,33,34,34,35,35,36,36,37,37,38,38,39,39,40,40,41,41,42,42,43,43,44,44,45,45,46,46,47,47,48,48,49,49,50,50,51,51,52,52,53,53,54,54,55,55,56,56,57,57,58,58,59,59,60,60,61,61,62,62],"right_children":[2,4,6,8,10,12,14,16,18,20,22,24,26,28,30,32,34,36,38,40,42,44,46,48,50,52,54,56,58,60,62,64,66,68,70,72,74,76,78,80,82,84,86,88,90,92,94,96,98,100,102,104,106,108,110,112,114,116,118,120,122,124,126,-1,-1,-1,-1,-1,-1,-1,-1,-1,-1,-1,-1,-1,-1,-1,-1,-1,-1,-1,-1,-1,-1,-1,-1,-1,-1,-1,-1,-1,-1,-1,-1,-1,-1,-1,-1,-1,-1,-1,-1,-1,-1,-1,-1,-1,-1,-1,-1,-1,-1,-1,-1,-1,-1,-1,-1,-1,-1,-1,-1,-1,-1,-1,-1],"split_conditions":[1.7205882E0,3.67915E-2,2.278281E0,4.320803E-1,2.551371E-1,8.095035E-1,2.278281E0,1.8234944E0,1.2362032E0,1.6029412E0,1.4589013E0,-2.48154E-1,1.7666961E0,1.8225377E0,1.7058823E0,1.3679922E0,-3.73494E-1,-3.61445E-2,1.6427139E0,1.4589013E0,1.7222222E0,1.7777778E0,1.8028406E0,1.6029412E0,1.9797444E0,2.3190975E0,2.4619546E0,2.012975E0,1.9353708E0,2.3395057E0,2.0712674E0,1.7205882E0,1.3970588E0,2.053791E0,2.502771E0,1.7907925E0,1.6763669E0,1.6917173E0,-3.70679E-2,1.3382353E0,1.7787442E0,1.9474189E0,-2.815885E-1,1.2794118E0,1.8234944E0,1.5498104E0,1.7654848E0,1.867647E0,1.367647E0,1.0392157E0,1.517647E0,8.283368E-1,1E0,1.7787442E0,8.283368E-1,1.8701178E0,2.4007301E0,2.0558527E0,2.1966484E0,-6.310682E-1,2.5639954E0,2.3395057E0,1.445783E-1,-2.6707647E-3,4.1024692E-2,3.4720387E-2,-2.3698865E-2,8.693977E-2,3.0910568E-2,6.3574545E-2,3.1768337E-2,1.5126291E-1,2.1000001E-1,1.504979E-1,8.412972E-2,-5.5056963E-2,4.337059E-2,-1.2667531E-1,-2.6616931E-2,7.672495E-2,-8.118544E-2,-2.699156E-4,6.972297E-2,4.599446E-2,-8.3725795E-2,2.1000001E-1,9.218381E-2,1.01139985E-1,-1.4343448E-1,-2.7012134E-2,-1.4622322E-1,-1.4779156E-1,4.924978E-2,-3.395452E-2,9.420992E-2,-3.2048482E-2,1.9962613E-1,-5.676486E-2,4.2627875E-2,8.856746E-2,3.5964828E-2,-8.805992E-2,1.2403671E-1,-5.7322856E-2,1.2945528E-1,1.1304053E-1,-3.2135855E-2,-1.2587947E-1,7.901049E-3,7.771975E-2,2.0234051E-1,-1.3543834E-1,-1.1525038E-1,-9.076246E-2,3.3117723E-2,1.3611281E-1,-5.2568533E-2,-3.411971E-2,3.029337E-2,-7.80731E-2,-1.6752195E-2,-1.3209865E-3,3.6104064E-2,-5.124871E-2,9.553212E-2,4.6514038E-2,-1.5960338E-2],"split_indices":[3,8,5,9,9,8,4,1,5,3,4,8,5,0,2,1,8,8,0,4,2,2,0,7,5,0,0,4,4,4,1,7,6,0,5,1,1,4,8,3,4,5,9,2,1,1,4,3,2,7,2,9,7,5,9,4,1,1,1,8,4,4,8,0,0,0,0,0,0,0,0,0,0,0,0,0,0,0,0,0,0,0,0,0,0,0,0,0,0,0,0,0,0,0,0,0,0,0,0,0,0,0,0,0,0,0,0,0,0,0,0,0,0,0,0,0,0,0,0,0,0,0,0,0,0,0,0],"split_type":[0,0,0,0,0,0,0,0,0,0,0,0,0,0,0,0,0,0,0,0,0,0,0,0,0,0,0,0,0,0,0,0,0,0,0,0,0,0,0,0,0,0,0,0,0,0,0,0,0,0,0,0,0,0,0,0,0,0,0,0,0,0,0,0,0,0,0,0,0,0,0,0,0,0,0,0,0,0,0,0,0,0,0,0,0,0,0,0,0,0,0,0,0,0,0,0,0,0,0,0,0,0,0,0,0,0,0,0,0,0,0,0,0,0,0,0,0,0,0,0,0,0,0,0,0,0,0],"sum_hessian":[1.2097296E5,7.573628E4,4.5236684E4,5.0080605E4,2.5655672E4,3.7319266E4,7.917417E3,4.920586E4,8.747469E2,2.021489E4,5.440782E3,3.2506973E4,4.812293E3,4.289778E3,3.6276394E3,4.7238105E4,1.967755E3,8.405573E2,3.4189587E1,1.7553982E4,2.6609087E3,1.2299227E3,4.21086E3,3.9441057E3,2.8562865E4,4.501374E3,3.109188E2,1.7801787E3,2.5095989E3,1.679198E3,1.9484413E3,1.1921177E4,3.531693E4,8.7484973E2,1.0929053E3,4.8856708E2,3.519902E2,2.0936195E1,1.3253391E1,3.9175715E3,1.363641E4,8.989668E2,1.761942E3,9.109217E2,3.19001E2,1.801451E3,2.4094087E3,1.7943542E3,2.1497515E3,2.6540627E4,2.0222385E3,2.1378467E2,4.2875894E3,5.129581E1,2.5962296E2,8.658326E2,9.143462E2,1.0770083E3,1.4325907E3,2.362721E2,1.4429259E3,6.302158E2,1.3182255E3,8.0892935E3,3.8318835E3,1.4892284E3,3.38277E4,8.033095E2,7.154019E1,3.5114737E2,7.417579E2,4.3315146E2,5.5415638E1,1.0267855E2,2.4931166E2,1.3363238E1,7.5729575E0,5.6804338E0,7.5729575E0,3.5579148E3,3.596567E2,1.2653184E4,9.8322675E2,7.275682E2,1.7139862E2,2.6704767E2,1.4948943E3,1.8786755E1,8.9213495E2,2.6587482E2,5.3126186E1,1.2482031E2,1.6766307E3,2.2642283E3,1.451805E2,2.2092438E2,1.5734299E3,4.495872E2,1.7001643E3,3.4625784E3,2.3078049E4,1.5904051E2,1.863198E3,2.3538008E1,1.9024667E2,1.1750025E2,4.1700894E3,5.450239E0,4.584557E1,2.0213156E2,5.7491417E1,4.5322598E2,4.126066E2,8.931105E2,2.123572E1,9.00208E1,9.869875E2,2.1447852E2,1.2181122E3,1.7034766E2,6.592443E1,7.639539E2,6.789719E2,5.2710663E1,5.775052E2,1.2121027E3,1.0612287E2],"tree_param":{"num_deleted":"0","num_feature":"10","num_nodes":"127","size_leaf_vector":"1"}},{"base_weights":[3.5353348E-2,4.4971786E-4,9.538262E-2,1.6569756E-2,-9.338465E-2,1.08699106E-1,-9.790085E-2,3.0363367E-3,9.035496E-2,-2.747614E-1,-3.0120585E-2,1.320274E-1,-2.141207E-2,-1.4300278E-1,7.078002E-2,-3.8832322E-1,8.107826E-3,6.594781E-2,5.5155253E-1,2.3762377E-1,-2.9861975E-1,9.082883E-2,-7.886493E-2,2.8803596E-1,1.1809591E-1,-1.7352958E-1,5.7882924E-2,-1.2183845E-1,-3.8905832E-1,2.4455352E-1,-2.6539158E-2,-4.8145673E-1,-4.8794795E-2,7.9907216E-2,-1.1545406E-2,1.7572956E-1,-1.22259766E-1,-1.3636E-1,5.7399255E-1,2.911169E-1,-9.767045E-3,-3.1505582E-1,2.3011303E-2,2.2756605E-1,3.983872E-2,-2.131446E-1,3.220162E-2,-2.3945914E-1,3.891687E-1,6.9783576E-2,1.9144937E-1,-3.0457518E-1,3.3248402E-2,-1.29663E-1,1.14362605E-1,-2.5899032E-1,-6.259227E-2,2.6286697E-2,-4.6103016E-1,9.588751E-2,2.337146E-1,-2.7170387E-1,8.90855E-2,-1.4870572E-1,9.177077E-2,4.873097E-2,-2.6620267E-2,7.335347E-2,1.4740042E-2,-2.059481E-2,1.5037752E-2,7.2034895E-2,-1.5270172E-2,-7.971681E-2,5.5564746E-2,1.7410481E-1,-1.11544885E-1,7.9631604E-2,1.2151271E-1,-7.296571E-2,-1.0430569E-1,-8.025613E-3,1.6430648E-1,5.8084026E-2,1.2720089E-1,-1.418364E-1,1.3782292E-2,-2.8332964E-2,-8.7419674E-2,8.396756E-2,-6.841482E-3,2.1041455E-3,-1.322527E-1,1.4244814E-1,9.86999E-2,-2.1113679E-3,4.054028E-2,1.0709328E-1,1.3482672E-2,-1.1844159E-1,-6.988065E-2,-3.4847632E-2,2.0409731E-2,3.3062145E-2,-4.5403358E-2,4.3948904E-2,2.5075395E-3,-1.4889929E-2,-1.3265236E-1,1.1478124E-1,-2.2729976E-2,1.9518687E-1,-1.4654067E-2,-2.2636E-3,-1.4794359E-1,6.857219E-2,9.389071E-2,6.717654E-2,-1.181174E-1,6.6562794E-2,-7.5993277E-3],"categories":[],"categories_nodes":[],"categories_segments":[],"categories_sizes":[],"default_left":[0,0,0,0,0,0,0,0,0,0,0,0,0,0,0,0,0,0,0,0,0,0,0,0,0,0,0,0,0,0,0,0,0,0,0,0,0,0,0,0,0,0,0,0,0,0,0,0,0,0,0,0,0,0,0,0,0,0,0,0,0,0,0,0,0,0,0,0,0,0,0,0,0,0,0,0,0,0,0,0,0,0,0,0,0,0,0,0,0,0,0,0,0,0,0,0,0,0,0,0,0,0,0,0,0,0,0,0,0,0,0,0,0,0,0,0,0,0,0,0,0],"id":3,"left_children":[1,3,5,7,9,11,13,15,17,19,21,23,25,27,29,31,33,35,37,39,41,43,45,47,49,51,53,55,57,59,61,63,65,67,69,71,73,-1,75,77,-1,79,81,83,85,87,89,91,93,95,97,99,101,103,105,107,109,111,113,-1,115,117,119,-1,-1,-1,-1,-1,-1,-1,-1,-1,-1,-1,-1,-1,-1,-1,-1,-1,-1,-1,-1,-1,-1,-1,-1,-1,-1,-1,-1,-1,-1,-1,-1,-1,-1,-1,-1,-1,-1,-1,-1,-1,-1,-1,-1,-1,-1,-1,-1,-1,-1,-1,-1,-1,-1,-1,-1,-1,-1],"loss_changes":[2.5708823E2,1.1736387E2,1.16125336E2,6.6119644E1,1.3051819E2,1.2810883E2,2.213602E1,1.1105796E2,1.1548409E2,3.6029907E1,4.973486E1,7.775122E1,7.742078E1,1.1904415E1,1.0394152E1,2.2611923E1,7.794745E1,2.0142949E2,1.1903046E1,1.9090009E0,1.4867615E1,1.6886967E1,8.9675476E1,1.5657378E2,1.1642737E2,5.9605316E1,4.4708458E1,1.716768E1,5.4322834E0,1.04800224E-1,1.1210954E1,6.4437256E0,1.3237427E0,6.0120026E1,1.5273337E2,8.9856186E1,1.5848769E2,0E0,3.2511292E0,2.1372032E-1,0E0,6.1844482E0,3.6073487E0,4.3065147E0,5.547083E0,2.525589E1,4.4851562E1,2.345673E1,1.2531494E1,9.9460266E1,3.1637735E2,8.610367E0,4.4463086E0,5.0980034E0,1.1046501E1,2.4431576E1,8.698433E0,1.3323187E0,2.2477264E0,0E0,8.516312E-3,7.7516575E0,4.091386E0,0E0,0E0,0E0,0E0,0E0,0E0,0E0,0E0,0E0,0E0,0E0,0E0,0E0,0E0,0E0,0E0,0E0,0E0,0E0,0E0,0E0,0E0,0E0,0E0,0E0,0E0,0E0,0E0,0E0,0E0,0E0,0E0,0E0,0E0,0E0,0E0,0E0,0E0,0E0,0E0,0E0,0E0,0E0,0E0,0E0,0E0,0E0,0E0,0E0,0E0,0E0,0E0,0E0,0E0,0E0,0E0,0E0,0E0],"parents":[2147483647,0,0,1,1,2,2,3,3,4,4,5,5,6,6,7,7,8,8,9,9,10,10,11,11,12,12,13,13,14,14,15,15,16,16,17,17,18,18,19,19,20,20,21,21,22,22,23,23,24,24,25,25,26,26,27,27,28,28,29,29,30,30,31,31,32,32,33,33,34,34,35,35,36,36,38,38,39,39,41,41,42,42,43,43,44,44,45,45,46,46,47,47,48,48,49,49,50,50,51,51,52,52,53,53,54,54,55,55,56,56,57,57,58,58,60,60,61,61,62,62],"right_children":[2,4,6,8,10,12,14,16,18,20,22,24,26,28,30,32,34,36,38,40,42,44,46,48,50,52,54,56,58,60,62,64,66,68,70,72,74,-1,76,78,-1,80,82,84,86,88,90,92,94,96,98,100,102,104,106,108,110,112,114,-1,116,118,120,-1,-1,-1,-1,-1,-1,-1,-1,-1,-1,-1,-1,-1,-1,-1,-1,-1,-1,-1,-1,-1,-1,-1,-1,-1,-1,-1,-1,-1,-1,-1,-1,-1,-1,-1,-1,-1,-1,-1,-1,-1,-1,-1,-1,-1,-1,-1,-1,-1,-1,-1,-1,-1,-1,-1,-1,-1,-1],"split_conditions":[1.8992262E0,2.4117646E0,9.470855E-1,2.0197082E0,1.9594672E0,2.4007301E0,1.5982419E0,-6.59114E-1,3.092244E-1,1.2E0,1.1470588E0,1.0196079E0,1.8225377E0,1.3382353E0,1.4558823E0,1.7205882E0,1.3630549E0,1.382353E0,1.6764706E0,1.4589013E0,1.9109341E0,1.5195073E0,1.707102E0,8.948179E-1,1.7686404E0,2.3395057E0,1.9594672E0,1.4589013E0,1.2884616E0,1.6100695E0,1.690858E0,1.2362032E0,1.4351921E0,1.0961539E0,1.6138669E0,1.7352941E0,1.8028406E0,-1.3636E-1,-1.686747E-1,1.3679922E0,-9.767045E-3,1.5043558E0,1.6029412E0,1.3679922E0,1.3376892E0,1.2647059E0,1.5882353E0,1.795393E-1,3.373494E-1,1.8382353E0,1.6029412E0,2.012975E0,-6.232152E-1,1.7205882E0,2.4117646E0,2.5639954E0,1E0,2.4211383E0,2.5639954E0,9.588751E-2,1.6346154E0,1.5859731E0,2.7476687E0,-1.4870572E-1,9.177077E-2,4.873097E-2,-2.6620267E-2,7.335347E-2,1.4740042E-2,-2.059481E-2,1.5037752E-2,7.2034895E-2,-1.5270172E-2,-7.971681E-2,5.5564746E-2,1.7410481E-1,-1.11544885E-1,7.9631604E-2,1.2151271E-1,-7.296571E-2,-1.0430569E-1,-8.025613E-3,1.6430648E-1,5.8084026E-2,1.2720089E-1,-1.418364E-1,1.3782292E-2,-2.8332964E-2,-8.7419674E-2,8.396756E-2,-6.841482E-3,2.1041455E-3,-1.322527E-1,1.4244814E-1,9.86999E-2,-2.1113679E-3,4.054028E-2,1.0709328E-1,1.3482672E-2,-1.1844159E-1,-6.988065E-2,-3.4847632E-2,2.0409731E-2,3.3062145E-2,-4.5403358E-2,4.3948904E-2,2.5075395E-3,-1.4889929E-2,-1.3265236E-1,1.1478124E-1,-2.2729976E-2,1.9518687E-1,-1.4654067E-2,-2.2636E-3,-1.4794359E-1,6.857219E-2,9.389071E-2,6.717654E-2,-1.181174E-1,6.6562794E-2,-7.5993277E-3],"split_indices":[1,7,8,5,4,5,5,9,8,2,3,7,0,7,7,7,1,3,2,0,0,0,0,9,4,4,4,4,6,5,5,1,0,7,1,6,0,0,9,1,0,1,3,1,1,3,2,8,8,2,7,4,9,3,2,0,7,0,0,0,6,4,0,0,0,0,0,0,0,0,0,0,0,0,0,0,0,0,0,0,0,0,0,0,0,0,0,0,0,0,0,0,0,0,0,0,0,0,0,0,0,0,0,0,0,0,0,0,0,0,0,0,0,0,0,0,0,0,0,0,0],"split_type":[0,0,0,0,0,0,0,0,0,0,0,0,0,0,0,0,0,0,0,0,0,0,0,0,0,0,0,0,0,0,0,0,0,0,0,0,0,0,0,0,0,0,0,0,0,0,0,0,0,0,0,0,0,0,0,0,0,0,0,0,0,0,0,0,0,0,0,0,0,0,0,0,0,0,0,0,0,0,0,0,0,0,0,0,0,0,0,0,0,0,0,0,0,0,0,0,0,0,0,0,0,0,0,0,0,0,0,0,0,0,0,0,0,0,0,0,0,0,0,0,0],"sum_hessian":[1.2270017E5,7.758809E4,4.5112082E4,6.6213875E4,1.1374222E4,4.2204773E4,2.9073064E3,5.5952332E4,1.0261538E4,2.940507E3,8.433714E3,3.578812E4,6.4166523E3,2.2940698E3,6.132367E2,7.148239E2,5.523751E4,9.746864E3,5.1467316E2,1.304293E2,2.8100776E3,2.4223271E3,6.011387E3,2.9322578E3,3.2855863E4,2.1983003E3,4.218352E3,2.1137517E3,1.8031804E2,2.1960184E2,3.9363483E2,5.6062506E2,1.5419887E2,1.186992E4,4.336759E4,6.15608E3,3.5907842E3,1.0808845E1,5.0386435E2,1.0880874E2,2.1620562E1,2.6734775E3,1.3660017E2,6.570069E2,1.7653202E3,2.7208977E3,3.2904895E3,4.7151736E2,2.4607405E3,1.9810287E4,1.3045576E4,1.3452653E3,8.530351E2,9.7603687E2,3.2423152E3,6.366253E2,1.4771263E3,2.672492E1,1.5359312E2,2.411189E1,1.9548994E2,1.2571826E2,2.6791656E2,5.5103723E2,9.587806E0,2.4031923E1,1.3016695E2,1.8685216E3,1.0001398E4,2.2517549E4,2.0850041E4,4.7940166E3,1.3620635E3,2.448494E3,1.1422903E3,5.008843E2,2.9800367E0,9.151229E1,1.729645E1,8.3769324E2,1.8357843E3,1.256334E2,1.0966773E1,5.6187646E2,9.513047E1,1.9867296E1,1.7454529E3,1.081942E3,1.6389556E3,5.9721027E2,2.6932793E3,2.1245667E2,2.590607E2,1.01246924E3,1.4482714E3,9.106385E3,1.0703903E4,6.1244966E3,6.921079E3,5.933856E2,7.518796E2,1.6065166E2,6.923834E2,8.057086E1,8.95466E2,2.4877922E3,7.545229E2,2.97682E2,3.3894327E2,4.164904E1,1.4354773E3,2.0479083E0,2.4677013E1,1.0239542E1,1.4335358E2,1.8722981E2,8.2601385E0,2.4671621E1,1.0104664E2,1.2356703E2,1.4434955E2],"tree_param":{"num_deleted":"0","num_feature":"10","num_nodes":"121","size_leaf_vector":"1"}},{"base_weights":[2.91145E-2,-1.0373321E-3,7.6573245E-2,1.06044E-2,-7.092828E-2,9.043218E-2,-7.425766E-2,-2.3546366E-3,7.479444E-2,-2.4488284E-1,-1.5815042E-2,1.09481946E-1,-2.7637273E-2,-2.0077509E-1,1.8018663E-2,-3.7519062E-1,2.0930478E-3,2.260999E-1,2.8936155E-2,1.7936352E-1,-2.693386E-1,-4.9861945E-2,1.1341505E-1,1.3359159E-1,6.638451E-2,-1.3666564E-1,1.254552E-1,-2.923219E-1,1.4777287E-2,-9.426132E-2,1.11113526E-1,-4.7911718E-1,-4.2298738E-2,8.362616E-3,-1.9799179E-1,2.7753907E-1,-6.003338E-2,-3.449199E-2,2.2597282E-1,2.2856002E-1,-6.7724556E-2,-2.950235E-1,8.3953746E-2,7.5687066E-2,-1.22763745E-1,8.252814E-2,3.071359E-1,8.389419E-2,3.2483485E-1,-1.5157525E-1,1.2698166E-1,2.2517525E-1,-1.5475307E-1,5.9919257E-2,2.1027869E-1,-3.7109253E-1,-2.2284439E-1,-1.649683E-2,2.850578E-1,-2.1305048E-1,-4.4169128E-2,1.6454501E-1,5.687644E-3,-1.4866255E-1,7.249492E-2,-2.5417991E-2,3.294111E-2,-7.630008E-3,1.5510346E-2,-2.8813716E-2,-1.386968E-1,8.670005E-2,-1.4438389E-1,6.630876E-2,-4.5341287E-2,2.3497265E-2,-7.947019E-2,1.02232315E-1,3.9209533E-2,6.384923E-2,9.1434605E-2,-1.0037159E-1,-8.4616905E-3,-1.0146852E-1,-6.633748E-2,7.719876E-2,1.986161E-2,5.415785E-2,1.0074203E-2,-5.9091944E-2,-1.0143588E-2,3.462983E-2,-2.8706044E-3,6.208624E-2,1.6075504E-1,4.9879845E-2,1.219331E-2,-6.667293E-2,1.0239064E-1,-1.3232085E-2,-1.389314E-1,6.636133E-2,2.4568988E-2,-8.990192E-2,7.441648E-2,-3.9284892E-2,-1.0395914E-1,6.0433038E-2,-1.9113883E-2,8.5186124E-2,9.576794E-3,-1.13933496E-1,3.498669E-2,-9.7417936E-2,-4.896977E-2,5.279017E-3,-3.935826E-2,2.0585456E-1,5.1338337E-2,-5.49542E-2,-1.013341E-1,2.1000001E-1,-1.5805291E-2,2.636201E-2,6.0803648E-2,7.098126E-2,-6.4479597E-3],"categories":[],"categories_nodes":[],"categories_segments":[],"categories_sizes":[],"default_left":[0,0,0,0,0,0,0,0,0,0,0,0,0,0,0,0,0,0,0,0,0,0,0,0,0,0,0,0,0,0,0,0,0,0,0,0,0,0,0,0,0,0,0,0,0,0,0,0,0,0,0,0,0,0,0,0,0,0,0,0,0,0,0,0,0,0,0,0,0,0,0,0,0,0,0,0,0,0,0,0,0,0,0,0,0,0,0,0,0,0,0,0,0,0,0,0,0,0,0,0,0,0,0,0,0,0,0,0,0,0,0,0,0,0,0,0,0,0,0,0,0,0,0,0,0,0,0],"id":4,"left_children":[1,3,5,7,9,11,13,15,17,19,21,23,25,27,29,31,33,35,37,39,41,43,45,47,49,51,53,55,57,59,61,63,65,67,69,71,73,75,77,79,81,83,85,87,89,91,93,95,97,99,101,103,105,107,109,111,113,115,117,119,121,123,125,-1,-1,-1,-1,-1,-1,-1,-1,-1,-1,-1,-1,-1,-1,-1,-1,-1,-1,-1,-1,-1,-1,-1,-1,-1,-1,-1,-1,-1,-1,-1,-1,-1,-1,-1,-1,-1,-1,-1,-1,-1,-1,-1,-1,-1,-1,-1,-1,-1,-1,-1,-1,-1,-1,-1,-1,-1,-1,-1,-1,-1,-1,-1,-1],"loss_changes":[1.7766531E2,6.1775646E1,1.00835724E2,5.4139008E1,1.03929794E2,9.936502E1,4.7398094E1,8.979842E1,7.584842E1,2.7109375E1,3.6232788E1,3.9516632E1,1.0247243E2,3.379207E1,2.4557585E1,2.2065506E1,6.7132614E1,3.743976E1,1.04872086E2,1.7508183E0,2.2406174E1,5.9661854E1,1.0249456E1,2.3180475E2,1.8028047E2,2.3501228E1,1.4183308E1,6.4948654E0,4.327221E0,6.3280964E0,7.2338743E0,5.877983E0,9.965397E-1,7.600222E1,4.377075E1,1.8883743E1,9.975244E0,1.650368E2,2.2305756E1,7.8140736E-2,2.4867022E-1,7.2670746E0,4.997418E-1,1.0565674E1,2.7213581E1,4.4934835E0,5.2913895E0,6.897334E1,4.5398743E1,9.939602E1,4.5349594E1,2.1290236E0,1.5545822E1,2.5243963E1,1.4611668E1,2.423996E0,3.84066E0,1.7983084E0,2.308743E0,1.1141129E0,5.743432E0,2.4741936E0,2.7229674E0,0E0,0E0,0E0,0E0,0E0,0E0,0E0,0E0,0E0,0E0,0E0,0E0,0E0,0E0,0E0,0E0,0E0,0E0,0E0,0E0,0E0,0E0,0E0,0E0,0E0,0E0,0E0,0E0,0E0,0E0,0E0,0E0,0E0,0E0,0E0,0E0,0E0,0E0,0E0,0E0,0E0,0E0,0E0,0E0,0E0,0E0,0E0,0E0,0E0,0E0,0E0,0E0,0E0,0E0,0E0,0E0,0E0,0E0,0E0,0E0,0E0,0E0,0E0,0E0],"parents":[2147483647,0,0,1,1,2,2,3,3,4,4,5,5,6,6,7,7,8,8,9,9,10,10,11,11,12,12,13,13,14,14,15,15,16,16,17,17,18,18,19,19,20,20,21,21,22,22,23,23,24,24,25,25,26,26,27,27,28,28,29,29,30,30,31,31,32,32,33,33,34,34,35,35,36,36,37,37,38,38,39,39,40,40,41,41,42,42,43,43,44,44,45,45,46,46,47,47,48,48,49,49,50,50,51,51,52,52,53,53,54,54,55,55,56,56,57,57,58,58,59,59,60,60,61,61,62,62],"right_children":[2,4,6,8,10,12,14,16,18,20,22,24,26,28,30,32,34,36,38,40,42,44,46,48,50,52,54,56,58,60,62,64,66,68,70,72,74,76,78,80,82,84,86,88,90,92,94,96,98,100,102,104,106,108,110,112,114,116,118,120,122,124,126,-1,-1,-1,-1,-1,-1,-1,-1,-1,-1,-1,-1,-1,-1,-1,-1,-1,-1,-1,-1,-1,-1,-1,-1,-1,-1,-1,-1,-1,-1,-1,-1,-1,-1,-1,-1,-1,-1,-1,-1,-1,-1,-1,-1,-1,-1,-1,-1,-1,-1,-1,-1,-1,-1,-1,-1,-1,-1,-1,-1,-1,-1,-1,-1],"split_conditions":[1.7205882E0,2.4007301E0,2.5435872E0,2.0197082E0,1.9594672E0,2.4211383E0,1.8701178E0,-6.59114E-1,1.2941177E0,1.4740528E0,1.9172444E0,1.6029412E0,1.6138669E0,2.4007301E0,2.1047444E0,1.7205882E0,4.582146E-1,1.7352941E0,1.8293015E0,1.4134467E0,1.8234944E0,1.1470588E0,2.645628E0,1.7922345E0,1.482353E0,1E0,1.7666961E0,2.0333831E0,2.9313424E0,1.8148888E0,2.3395054E0,1.2362032E0,1.2362032E0,1.60404E-2,5.06024E-1,1.4081633E0,1.4285983E0,1.5859731E0,1.74678E0,1.3679922E0,1.4085095E0,1.5686275E0,1.7476689E0,1.5195073E0,1.707102E0,1.7777778E0,1.882353E0,1.0784314E0,5.29175E-2,1.707102E0,2.0422444E0,1.0227726E0,1.367647E0,1.4705882E0,2.18163E0,4.81927E-2,2.014706E0,2.788485E0,1.9353708E0,2.8293016E0,1.8293015E0,2.6252198E0,2.5844035E0,-1.4866255E-1,7.249492E-2,-2.5417991E-2,3.294111E-2,-7.630008E-3,1.5510346E-2,-2.8813716E-2,-1.386968E-1,8.670005E-2,-1.4438389E-1,6.630876E-2,-4.5341287E-2,2.3497265E-2,-7.947019E-2,1.02232315E-1,3.9209533E-2,6.384923E-2,9.1434605E-2,-1.0037159E-1,-8.4616905E-3,-1.0146852E-1,-6.633748E-2,7.719876E-2,1.986161E-2,5.415785E-2,1.0074203E-2,-5.9091944E-2,-1.0143588E-2,3.462983E-2,-2.8706044E-3,6.208624E-2,1.6075504E-1,4.9879845E-2,1.219331E-2,-6.667293E-2,1.0239064E-1,-1.3232085E-2,-1.389314E-1,6.636133E-2,2.4568988E-2,-8.990192E-2,7.441648E-2,-3.9284892E-2,-1.0395914E-1,6.0433038E-2,-1.9113883E-2,8.5186124E-2,9.576794E-3,-1.13933496E-1,3.498669E-2,-9.7417936E-2,-4.896977E-2,5.279017E-3,-3.935826E-2,2.0585456E-1,5.1338337E-2,-5.49542E-2,-1.013341E-1,2.1000001E-1,-1.5805291E-2,2.636201E-2,6.0803648E-2,7.098126E-2,-6.4479597E-3],"split_indices":[3,5,5,5,4,0,0,9,2,0,0,7,5,4,4,7,8,6,0,1,1,3,4,4,2,7,5,4,4,4,0,1,1,8,9,3,1,1,4,1,0,2,4,0,0,2,2,7,9,0,1,9,7,7,5,9,3,5,1,1,4,5,5,0,0,0,0,0,0,0,0,0,0,0,0,0,0,0,0,0,0,0,0,0,0,0,0,0,0,0,0,0,0,0,0,0,0,0,0,0,0,0,0,0,0,0,0,0,0,0,0,0,0,0,0,0,0,0,0,0,0,0,0,0,0,0,0],"split_type":[0,0,0,0,0,0,0,0,0,0,0,0,0,0,0,0,0,0,0,0,0,0,0,0,0,0,0,0,0,0,0,0,0,0,0,0,0,0,0,0,0,0,0,0,0,0,0,0,0,0,0,0,0,0,0,0,0,0,0,0,0,0,0,0,0,0,0,0,0,0,0,0,0,0,0,0,0,0,0,0,0,0,0,0,0,0,0,0,0,0,0,0,0,0,0,0,0,0,0,0,0,0,0,0,0,0,0,0,0,0,0,0,0,0,0,0,0,0,0,0,0,0,0,0,0,0,0],"sum_hessian":[1.2415635E5,7.5922016E4,4.8234336E4,6.5082137E4,1.083988E4,4.4175703E4,4.0586362E3,5.4150832E4,1.0931303E4,2.6072246E3,8.232655E3,3.8038504E4,6.137199E3,1.711235E3,2.3474011E3,6.373853E2,5.351345E4,2.5415962E3,8.389707E3,1.4175723E2,2.4654673E3,6.5164487E3,1.7162065E3,2.4391352E4,1.364715E4,3.5845127E3,2.5526868E3,1.2008628E3,5.1037216E2,1.0640535E3,1.2833477E3,4.854057E2,1.5197961E2,5.1888504E4,1.6249448E3,2.154334E3,3.8726215E2,6.3472773E3,2.0424294E3,1.1828172E2,2.347551E1,2.298526E3,1.6694147E2,2.3938328E3,4.122616E3,1.4814325E3,2.3477402E2,1.9361436E4,5.029917E3,2.9684688E3,1.0678682E4,1.7010464E2,3.414408E3,1.4410305E3,1.1116561E3,5.6075806E2,6.401047E2,4.5828323E2,5.2088917E1,3.146458E2,7.494077E2,8.51323E2,4.320247E2,4.7489636E2,1.0509323E1,1.1917856E2,3.280105E1,2.915413E4,2.2734371E4,1.1736569E3,4.512879E2,2.1228894E3,3.144461E1,9.4450386E1,2.9281174E2,4.261404E3,2.0858735E3,9.251212E2,1.1173082E3,1.0119191E2,1.7089813E1,2.0650887E0,2.141042E1,1.4482362E3,8.502896E2,1.424919E1,1.5269228E2,6.8499725E2,1.7088354E3,2.2468948E3,1.8757213E3,1.0912825E3,3.9015005E2,1.6458643E2,7.018759E1,6.6648926E3,1.2696543E4,1.4661339E2,4.8833037E3,2.207938E3,7.605309E2,3.4547424E3,7.223939E3,6.600266E0,1.6350438E2,3.0389019E3,3.7550623E2,6.716035E2,7.6942706E2,7.862721E2,3.253841E2,5.5116364E2,9.59443E0,2.346386E2,4.054661E2,3.5392603E2,1.043572E2,1.0411025E1,4.167789E1,2.5584554E2,5.8800293E1,5.8800297E0,7.4352765E2,2.8387317E2,5.674499E2,4.4686123E1,3.8733856E2],"tree_param":{"num_deleted":"0","num_feature":"10","num_nodes":"127","size_leaf_vector":"1"}},{"base_weights":[2.4056865E-2,-3.6650406E-5,6.6781275E-2,1.1336968E-2,-6.8903424E-2,7.81517E-2,-6.1439678E-2,-8.517679E-3,4.3537233E-2,-1.8568164E-1,2.249814E-3,9.588668E-2,-8.9556705E-3,-4.3163487E-1,-3.0404339E-2,1.5313426E-1,-2.754831E-2,-1.24309234E-1,7.880781E-2,1.3345172E-1,-2.1388881E-1,-9.099052E-2,4.9359445E-2,7.775365E-2,1.6450593E-1,-1.4223513E-1,5.9219353E-2,-4.513425E-1,1.8236095E-1,-1.13065295E-1,4.9662273E-2,1.7880213E-1,-1.37926E-1,4.5395244E-2,-5.3174503E-2,-2.633476E-2,-2.8780153E-1,5.0261173E-2,1.3906895E-1,1.6467749E-1,-3.0465256E-2,-2.398633E-1,4.247346E-2,4.2195726E-2,-2.6146546E-1,-2.4471521E-2,1.0542932E-1,2.0306557E-1,6.080443E-2,3.6432633E-1,8.182152E-2,-3.367344E-1,-5.191069E-2,-3.0348485E-2,1.11539856E-1,-1.884191E-1,-4.6086574E-1,1.7870137E-1,-1.167352E-1,-7.334955E-2,-4.2505175E-1,1.5102822E-1,1.2249385E-2,3.5833985E-2,8.498152E-2,-1.3297176E-1,2.978836E-2,3.0198883E-2,-4.353857E-2,3.3055685E-2,-2.106879E-2,-1.3074924E-1,5.0313235E-3,-1.4601609E-1,-6.455745E-2,3.201773E-2,-7.7582067E-3,-1.8638134E-2,5.509199E-2,4.435171E-2,8.050756E-2,-9.4924896E-4,-1.1303668E-1,-4.0703762E-2,-8.621605E-2,-5.0465178E-2,2.1385303E-2,2.0180412E-2,-1.11576244E-1,-9.938692E-2,-4.0627636E-2,1.2090361E-2,-8.155973E-2,6.753247E-2,5.3958064E-3,-7.373341E-2,7.625601E-2,7.63415E-3,3.4691744E-2,8.376111E-2,1.9183783E-1,-3.2661557E-2,4.9835008E-2,-1.2758808E-1,-8.69012E-2,3.3577107E-2,-2.4173832E-2,-6.0431678E-2,1.6044581E-2,1.2425265E-1,3.2437555E-2,8.681238E-2,-1.3011225E-1,-1.4822942E-1,-1.0659047E-1,2.6335923E-3,-4.155513E-2,2.1000001E-1,-1.3526468E-1,4.2486116E-2,8.462108E-2,-9.370604E-2,1.890718E-2],"categories":[],"categories_nodes":[],"categories_segments":[],"categories_sizes":[],"default_left":[0,0,0,0,0,0,0,0,0,0,0,0,0,0,0,0,0,0,0,0,0,0,0,0,0,0,0,0,0,0,0,0,0,0,0,0,0,0,0,0,0,0,0,0,0,0,0,0,0,0,0,0,0,0,0,0,0,0,0,0,0,0,0,0,0,0,0,0,0,0,0,0,0,0,0,0,0,0,0,0,0,0,0,0,0,0,0,0,0,0,0,0,0,0,0,0,0,0,0,0,0,0,0,0,0,0,0,0,0,0,0,0,0,0,0,0,0,0,0,0,0,0,0],"id":5,"left_children":[1,3,5,7,9,11,13,15,17,19,21,23,25,27,29,31,33,35,37,39,41,43,45,47,49,51,53,55,57,59,61,63,65,67,69,71,73,75,77,79,81,83,85,87,89,91,93,95,97,99,101,103,105,107,109,111,113,-1,-1,115,117,119,121,-1,-1,-1,-1,-1,-1,-1,-1,-1,-1,-1,-1,-1,-1,-1,-1,-1,-1,-1,-1,-1,-1,-1,-1,-1,-1,-1,-1,-1,-1,-1,-1,-1,-1,-1,-1,-1,-1,-1,-1,-1,-1,-1,-1,-1,-1,-1,-1,-1,-1,-1,-1,-1,-1,-1,-1,-1,-1,-1,-1],"loss_changes":[1.2904678E2,6.27875E1,6.590912E1,4.398522E1,9.441235E1,6.414679E1,4.229754E1,1.30929E2,1.5535916E2,3.875418E1,3.1022013E1,4.2912964E1,6.3838013E1,3.5282516E0,2.2500751E1,3.3514427E1,7.117834E1,7.298827E1,3.7296967E1,1.7963352E0,2.6332687E1,5.3834953E1,1.942545E1,5.7949173E1,1.1909477E2,4.175197E1,2.1785988E1,6.047592E-1,2.4918756E0,2.0694313E1,6.548495E0,2.5512756E1,2.6396097E1,1.0425759E2,7.8514145E1,5.0325165E1,2.4557419E1,6.325574E1,6.251477E1,4.738245E-1,5.362779E-1,1.7733185E1,2.224682E0,1.3851905E1,9.1067505E0,3.2476185E1,2.7905087E1,7.4655655E1,4.660544E1,4.923706E1,8.201546E1,3.0186005E0,7.6404686E0,2.4605238E1,2.9876556E0,1.4552735E0,7.571449E-1,0E0,0E0,7.948964E0,6.937847E0,5.339918E-1,2.0830662E1,0E0,0E0,0E0,0E0,0E0,0E0,0E0,0E0,0E0,0E0,0E0,0E0,0E0,0E0,0E0,0E0,0E0,0E0,0E0,0E0,0E0,0E0,0E0,0E0,0E0,0E0,0E0,0E0,0E0,0E0,0E0,0E0,0E0,0E0,0E0,0E0,0E0,0E0,0E0,0E0,0E0,0E0,0E0,0E0,0E0,0E0,0E0,0E0,0E0,0E0,0E0,0E0,0E0,0E0,0E0,0E0,0E0,0E0,0E0,0E0],"parents":[2147483647,0,0,1,1,2,2,3,3,4,4,5,5,6,6,7,7,8,8,9,9,10,10,11,11,12,12,13,13,14,14,15,15,16,16,17,17,18,18,19,19,20,20,21,21,22,22,23,23,24,24,25,25,26,26,27,27,28,28,29,29,30,30,31,31,32,32,33,33,34,34,35,35,36,36,37,37,38,38,39,39,40,40,41,41,42,42,43,43,44,44,45,45,46,46,47,47,48,48,49,49,50,50,51,51,52,52,53,53,54,54,55,55,56,56,59,59,60,60,61,61,62,62],"right_children":[2,4,6,8,10,12,14,16,18,20,22,24,26,28,30,32,34,36,38,40,42,44,46,48,50,52,54,56,58,60,62,64,66,68,70,72,74,76,78,80,82,84,86,88,90,92,94,96,98,100,102,104,106,108,110,112,114,-1,-1,116,118,120,122,-1,-1,-1,-1,-1,-1,-1,-1,-1,-1,-1,-1,-1,-1,-1,-1,-1,-1,-1,-1,-1,-1,-1,-1,-1,-1,-1,-1,-1,-1,-1,-1,-1,-1,-1,-1,-1,-1,-1,-1,-1,-1,-1,-1,-1,-1,-1,-1,-1,-1,-1,-1,-1,-1,-1,-1,-1,-1,-1,-1],"split_conditions":[1.9233226E0,2.4117646E0,2.5639954E0,1.7224865E0,2.0946074E0,2.235294E0,1.4589013E0,1.3376892E0,1.1764706E0,1.4740528E0,1.686174E0,1.8547444E0,2.1047444E0,1.5010123E0,1.6138669E0,1.5441177E0,-4.379518E-1,2.488677E-1,1.54E0,1.4413948E0,1.9172444E0,1.2794118E0,1.5994096E0,1.0196079E0,1.7205882E0,1.8225377E0,1.8148888E0,1.151167E0,1.3274997E0,1.367647E0,1.4705882E0,4.228003E-1,4.564492E-1,1.7058823E0,1.2789382E0,1.1730769E0,1.2362032E0,1.6029412E0,1.3382353E0,1.3679922E0,1.5257322E0,1.25E0,1.7305515E0,1.2794118E0,1.7546479E0,1.2058823E0,1.4852941E0,8.948179E-1,1.7388669E0,2.645628E0,1.6911764E0,1.8701178E0,2.0712674E0,2.3395057E0,2.1150157E0,2.2606719E0,2.6176472E0,1.7870137E-1,-1.167352E-1,1.2884616E0,6.35755E-1,1.0982811E0,1.690858E0,3.5833985E-2,8.498152E-2,-1.3297176E-1,2.978836E-2,3.0198883E-2,-4.353857E-2,3.3055685E-2,-2.106879E-2,-1.3074924E-1,5.0313235E-3,-1.4601609E-1,-6.455745E-2,3.201773E-2,-7.7582067E-3,-1.8638134E-2,5.509199E-2,4.435171E-2,8.050756E-2,-9.4924896E-4,-1.1303668E-1,-4.0703762E-2,-8.621605E-2,-5.0465178E-2,2.1385303E-2,2.0180412E-2,-1.11576244E-1,-9.938692E-2,-4.0627636E-2,1.2090361E-2,-8.155973E-2,6.753247E-2,5.3958064E-3,-7.373341E-2,7.625601E-2,7.63415E-3,3.4691744E-2,8.376111E-2,1.9183783E-1,-3.2661557E-2,4.9835008E-2,-1.2758808E-1,-8.69012E-2,3.3577107E-2,-2.4173832E-2,-6.0431678E-2,1.6044581E-2,1.2425265E-1,3.2437555E-2,8.681238E-2,-1.3011225E-1,-1.4822942E-1,-1.0659047E-1,2.6335923E-3,-4.155513E-2,2.1000001E-1,-1.3526468E-1,4.2486116E-2,8.462108E-2,-9.370604E-2,1.890718E-2],"split_indices":[1,7,0,0,4,7,4,5,7,0,0,5,4,9,5,2,9,8,3,1,0,2,1,7,7,0,0,8,5,7,7,9,9,6,1,3,5,7,7,1,1,3,1,3,1,3,3,9,4,1,2,4,1,4,4,1,3,0,0,6,8,9,5,0,0,0,0,0,0,0,0,0,0,0,0,0,0,0,0,0,0,0,0,0,0,0,0,0,0,0,0,0,0,0,0,0,0,0,0,0,0,0,0,0,0,0,0,0,0,0,0,0,0,0,0,0,0,0,0,0,0,0,0],"split_type":[0,0,0,0,0,0,0,0,0,0,0,0,0,0,0,0,0,0,0,0,0,0,0,0,0,0,0,0,0,0,0,0,0,0,0,0,0,0,0,0,0,0,0,0,0,0,0,0,0,0,0,0,0,0,0,0,0,0,0,0,0,0,0,0,0,0,0,0,0,0,0,0,0,0,0,0,0,0,0,0,0,0,0,0,0,0,0,0,0,0,0,0,0,0,0,0,0,0,0,0,0,0,0,0,0,0,0,0,0,0,0,0,0,0,0,0,0,0,0,0,0,0,0],"sum_hessian":[1.25362445E5,8.015931E4,4.520313E4,6.879791E4,1.1361409E4,4.1521465E4,3.6816672E3,4.2557645E4,2.6240262E4,4.3009644E3,7.060445E3,3.449767E4,7.0237915E3,2.8377997E2,3.3978872E3,4.4816978E3,3.8075945E4,4.556093E3,2.1684168E4,3.48974E2,3.9519905E3,2.3695842E3,4.6908604E3,2.7288629E4,7.2090435E3,2.3765818E3,4.6472095E3,2.7521133E2,8.56863E0,1.6716548E3,1.7262325E3,4.1188525E3,3.6284552E2,9.898795E3,2.817715E4,2.8496006E3,1.706492E3,1.4715189E4,6.9689785E3,2.9312903E2,5.5844982E1,3.5884727E3,3.635179E2,1.3307035E3,1.0388807E3,2.0249874E3,2.665873E3,3.249902E3,2.4038727E4,2.1089688E3,5.1000747E3,7.528061E2,1.6237759E3,1.7137865E3,2.933423E3,1.0346426E1,2.6486493E2,4.947857E0,3.620773E0,1.4839799E3,1.8767493E2,4.6455017E2,1.2616824E3,2.6279165E3,1.4909357E3,1.5827289E2,2.0457262E2,7.6733574E3,2.2254377E3,2.663097E3,2.5514053E4,2.705285E2,2.5790723E3,4.5481128E2,1.2516807E3,8.448201E3,6.266989E3,1.2637859E3,5.705193E3,2.5426129E2,3.8867744E1,5.2699738E1,3.1452446E0,1.1253223E3,2.4631504E3,4.314737E1,3.2037054E2,1.2555264E3,7.517714E1,6.674789E2,3.7140182E2,1.6054784E3,4.19509E2,1.1248195E3,1.5410536E3,3.3191132E2,2.9179907E3,1.46159E4,9.422825E3,1.612192E3,4.9677667E2,1.5632908E3,3.5367842E3,2.5844922E2,4.9435687E2,2.4139015E2,1.3823856E3,5.6311523E2,1.1506711E3,3.1386753E1,2.9020364E3,3.4488087E0,6.8976173E0,1.9864853E2,6.621639E1,6.5693494E2,8.27045E2,2.766324E0,1.849086E2,4.3537433E2,2.917584E1,1.6996167E2,1.0917207E3],"tree_param":{"num_deleted":"0","num_feature":"10","num_nodes":"123","size_leaf_vector":"1"}},{"base_weights":[1.9861309E-2,1.8825004E-3,6.0330108E-2,-1.3747627E-2,8.40508E-2,-1.2663719E-2,1.0457772E-1,9.8940685E-2,-2.228153E-2,-1.9606628E-1,1.1808941E-1,-1.0024308E-1,7.387362E-2,1.2880218E-1,2.8373163E-2,1.7603564E-1,-2.8557253E-1,-4.2013932E-2,1.206502E-2,-3.8037235E-1,-9.710649E-2,1.7787288E-1,9.558319E-3,-4.2548683E-1,-6.9701746E-2,1.7242154E-1,2.630143E-2,1.5065016E-1,5.2050848E-2,-5.1645275E-2,8.137176E-2,1.4579919E-1,2.951321E-1,-4.3253458E-1,-1.7528284E-3,3.881552E-3,-7.008635E-2,4.9142927E-2,-3.8195718E-2,-4.736626E-1,-4.3574277E-2,-1.4046094E-1,-1.4603298E-2,1.321383E-1,3.8259616E-1,2.6324254E-1,-5.457959E-2,-4.5972613E-1,4.1881517E-2,-2.3514295E-2,-1.7958629E-1,1.805905E-1,-2.620403E-1,6.4507104E-2,-8.655944E-2,1.3042153E-1,3.0394235E-1,1.5408465E-2,1.4325298E-1,-2.127042E-1,-2.606934E-2,-2.3191378E-1,8.875992E-2,4.6194054E-2,-1.22221224E-1,9.1706134E-2,-1.3703303E-1,6.7145616E-2,-1.4417754E-1,2.544332E-2,-9.19302E-2,-1.6549814E-2,2.3995642E-2,-2.808998E-2,-4.805613E-3,-2.634603E-2,2.1459892E-2,-3.0487733E-2,1.270187E-2,-1.0229375E-1,-1.4855507E-1,-8.044665E-3,-2.9791467E-2,-3.611415E-2,-1.3722391E-1,1.7244489E-3,-5.2141782E-2,7.418984E-2,1.1541029E-2,4.2553775E-2,1.73605E-1,7.6818176E-2,1.7398424E-1,-5.3134445E-2,5.5691965E-2,-1.4079519E-1,-2.6416918E-2,1.3953029E-1,-1.9119553E-2,-2.6621278E-2,1.29572535E-2,-2.613791E-2,-9.2243426E-2,5.554994E-2,-4.0107116E-2,-1.3556081E-1,8.294554E-2,7.858589E-2,6.5490874E-3,-6.326241E-2,-1.9150598E-2,2.8897053E-2,7.246521E-2,5.068497E-2,1.3039955E-1,1.9810928E-2,-1.6308898E-2,-3.934565E-2,7.34759E-2,-1.0226915E-3,-8.245694E-2,9.3276985E-3,-2.4082966E-2,1.0941153E-2,-7.783621E-2,2.9642118E-2,-1.3238251E-2],"categories":[],"categories_nodes":[],"categories_segments":[],"categories_sizes":[],"default_left":[0,0,0,0,0,0,0,0,0,0,0,0,0,0,0,0,0,0,0,0,0,0,0,0,0,0,0,0,0,0,0,0,0,0,0,0,0,0,0,0,0,0,0,0,0,0,0,0,0,0,0,0,0,0,0,0,0,0,0,0,0,0,0,0,0,0,0,0,0,0,0,0,0,0,0,0,0,0,0,0,0,0,0,0,0,0,0,0,0,0,0,0,0,0,0,0,0,0,0,0,0,0,0,0,0,0,0,0,0,0,0,0,0,0,0,0,0,0,0,0,0,0,0,0,0,0,0],"id":6,"left_children":[1,3,5,7,9,11,13,15,17,19,21,23,25,27,29,31,33,35,37,39,41,43,45,47,49,51,53,55,57,59,61,63,65,67,69,71,73,75,77,79,81,83,85,87,89,91,93,95,97,99,101,103,105,107,109,111,113,115,117,119,121,123,125,-1,-1,-1,-1,-1,-1,-1,-1,-1,-1,-1,-1,-1,-1,-1,-1,-1,-1,-1,-1,-1,-1,-1,-1,-1,-1,-1,-1,-1,-1,-1,-1,-1,-1,-1,-1,-1,-1,-1,-1,-1,-1,-1,-1,-1,-1,-1,-1,-1,-1,-1,-1,-1,-1,-1,-1,-1,-1,-1,-1,-1,-1,-1,-1],"loss_changes":[9.195292E1,1.12386665E2,1.2556233E2,7.070678E1,1.333722E2,1.1121104E2,4.4677094E1,1.5349046E2,4.6322365E1,2.7607742E1,8.091354E1,7.2413795E1,3.4598133E1,3.0788391E1,2.4768747E1,1.5485565E1,3.607318E1,5.592836E1,4.6478245E1,1.6605919E1,3.5302181E0,7.52393E1,7.210291E1,1.0034225E1,3.3838226E1,8.575142E0,2.147502E1,4.428885E1,1.3602512E1,9.581032E0,8.152325E0,1.5636192E1,7.061348E0,1.8080727E1,7.8342037E0,7.404173E1,3.4289383E1,4.4019398E1,5.4092335E1,1.0141373E0,1.0556942E-1,4.064294E0,1.1067872E0,7.090842E1,6.92117E1,1.8855896E0,1.0415384E2,2.0376816E0,1.9800712E0,2.0434444E1,2.3305817E1,3.417389E0,4.6999316E0,3.1343838E1,3.5450459E0,4.783783E1,2.9321762E1,1.0266241E1,3.258042E1,4.145851E0,6.229047E0,6.097884E-1,4.5879E0,0E0,0E0,0E0,0E0,0E0,0E0,0E0,0E0,0E0,0E0,0E0,0E0,0E0,0E0,0E0,0E0,0E0,0E0,0E0,0E0,0E0,0E0,0E0,0E0,0E0,0E0,0E0,0E0,0E0,0E0,0E0,0E0,0E0,0E0,0E0,0E0,0E0,0E0,0E0,0E0,0E0,0E0,0E0,0E0,0E0,0E0,0E0,0E0,0E0,0E0,0E0,0E0,0E0,0E0,0E0,0E0,0E0,0E0,0E0,0E0,0E0,0E0,0E0,0E0],"parents":[2147483647,0,0,1,1,2,2,3,3,4,4,5,5,6,6,7,7,8,8,9,9,10,10,11,11,12,12,13,13,14,14,15,15,16,16,17,17,18,18,19,19,20,20,21,21,22,22,23,23,24,24,25,25,26,26,27,27,28,28,29,29,30,30,31,31,32,32,33,33,34,34,35,35,36,36,37,37,38,38,39,39,40,40,41,41,42,42,43,43,44,44,45,45,46,46,47,47,48,48,49,49,50,50,51,51,52,52,53,53,54,54,55,55,56,56,57,57,58,58,59,59,60,60,61,61,62,62],"right_children":[2,4,6,8,10,12,14,16,18,20,22,24,26,28,30,32,34,36,38,40,42,44,46,48,50,52,54,56,58,60,62,64,66,68,70,72,74,76,78,80,82,84,86,88,90,92,94,96,98,100,102,104,106,108,110,112,114,116,118,120,122,124,126,-1,-1,-1,-1,-1,-1,-1,-1,-1,-1,-1,-1,-1,-1,-1,-1,-1,-1,-1,-1,-1,-1,-1,-1,-1,-1,-1,-1,-1,-1,-1,-1,-1,-1,-1,-1,-1,-1,-1,-1,-1,-1,-1,-1,-1,-1,-1,-1,-1,-1,-1,-1,-1,-1,-1,-1,-1,-1,-1,-1,-1,-1,-1,-1],"split_conditions":[1.7222222E0,4.320803E-1,1.584025E0,1.2156863E0,1.4775394E0,1.0227726E0,2.278281E0,1.3382353E0,1.5306122E0,1.8382353E0,2.4117646E0,1.2362032E0,1.02E0,1.7352941E0,2.1762402E0,1.5016358E0,1.4285983E0,1.2941177E0,1.7352941E0,1.4413948E0,3.528843E-1,7.390707E-1,1.2362032E0,2.0712674E0,2.3599138E0,1.151167E0,2.4211383E0,2.768077E0,2.3235295E0,1.9172444E0,1.6451169E0,1.254902E0,2.2486238E0,1.2794118E0,1.8992262E0,1.8234944E0,4.81927E-2,1.1764706E0,2.0588236E0,1.8225377E0,1.9835635E0,1.3333334E0,1.8905259E0,-3.61445E-2,2.09356E-1,1.202714E0,1.8234944E0,1.6674212E0,1.9956117E0,1.3269231E0,1.3235294E0,1.6823587E0,1.4116895E0,1.4589013E0,1.4589013E0,1.9474189E0,1.6823587E0,5.759602E-1,1.8382353E0,1.8389852E0,-1.566265E-1,2.5294118E0,2.5639954E0,4.6194054E-2,-1.22221224E-1,9.1706134E-2,-1.3703303E-1,6.7145616E-2,-1.4417754E-1,2.544332E-2,-9.19302E-2,-1.6549814E-2,2.3995642E-2,-2.808998E-2,-4.805613E-3,-2.634603E-2,2.1459892E-2,-3.0487733E-2,1.270187E-2,-1.0229375E-1,-1.4855507E-1,-8.044665E-3,-2.9791467E-2,-3.611415E-2,-1.3722391E-1,1.7244489E-3,-5.2141782E-2,7.418984E-2,1.1541029E-2,4.2553775E-2,1.73605E-1,7.6818176E-2,1.7398424E-1,-5.3134445E-2,5.5691965E-2,-1.4079519E-1,-2.6416918E-2,1.3953029E-1,-1.9119553E-2,-2.6621278E-2,1.29572535E-2,-2.613791E-2,-9.2243426E-2,5.554994E-2,-4.0107116E-2,-1.3556081E-1,8.294554E-2,7.858589E-2,6.5490874E-3,-6.326241E-2,-1.9150598E-2,2.8897053E-2,7.246521E-2,5.068497E-2,1.3039955E-1,1.9810928E-2,-1.6308898E-2,-3.934565E-2,7.34759E-2,-1.0226915E-3,-8.245694E-2,9.3276985E-3,-2.4082966E-2,1.0941153E-2,-7.783621E-2,2.9642118E-2,-1.3238251E-2],"split_indices":[2,9,5,6,4,9,5,3,2,3,3,5,7,6,4,1,5,2,7,5,8,9,5,1,0,8,0,1,2,0,1,3,5,2,5,5,9,7,6,0,1,7,0,8,8,5,5,4,0,6,6,4,9,4,4,5,4,9,6,4,9,7,0,0,0,0,0,0,0,0,0,0,0,0,0,0,0,0,0,0,0,0,0,0,0,0,0,0,0,0,0,0,0,0,0,0,0,0,0,0,0,0,0,0,0,0,0,0,0,0,0,0,0,0,0,0,0,0,0,0,0,0,0,0,0,0,0],"split_type":[0,0,0,0,0,0,0,0,0,0,0,0,0,0,0,0,0,0,0,0,0,0,0,0,0,0,0,0,0,0,0,0,0,0,0,0,0,0,0,0,0,0,0,0,0,0,0,0,0,0,0,0,0,0,0,0,0,0,0,0,0,0,0,0,0,0,0,0,0,0,0,0,0,0,0,0,0,0,0,0,0,0,0,0,0,0,0,0,0,0,0,0,0,0,0,0,0,0,0,0,0,0,0,0,0,0,0,0,0,0,0,0,0,0,0,0,0,0,0,0,0,0,0,0,0,0,0],"sum_hessian":[1.2638088E5,8.750615E4,3.8874734E4,7.352163E4,1.3984518E4,1.4671824E4,2.420291E4,5.175091E3,6.834654E4,1.5146996E3,1.2469818E4,7.291931E3,7.3798936E3,1.8364408E4,5.838503E3,4.3112305E3,8.638603E2,4.3408016E4,2.4938523E4,5.2817145E2,9.8652814E2,8.040264E3,4.4295537E3,6.248444E2,6.6670864E3,2.4018105E3,4.978083E3,1.429441E4,4.0699978E3,2.3262722E3,3.5122307E3,3.4400803E3,8.7115027E2,5.688074E2,2.950529E2,1.647461E4,2.6933406E4,1.4351376E4,1.0587147E4,4.1328778E2,1.14883675E2,6.4623615E2,3.4029196E2,6.573426E3,1.4668386E3,8.93277E2,3.5362766E3,5.822084E2,4.263609E1,4.6949053E3,1.9721815E3,2.3580574E3,4.3752968E1,3.7194148E3,1.2586683E3,1.2629639E4,1.664772E3,2.904302E3,1.1656957E3,3.1778342E2,2.0084888E3,8.0219864E1,3.432011E3,3.3906594E3,4.9420753E1,8.5967596E2,1.1474332E1,3.8556393E1,5.30251E2,2.3033372E2,6.471917E1,9.27702E3,7.19759E3,1.876177E4,8.1716377E3,2.016042E3,1.2335334E4,5.922383E3,4.6647646E3,6.002962E1,3.5325818E2,8.946258E1,2.5421097E1,6.0903094E2,3.720523E1,3.025764E2,3.771556E1,2.9477048E3,3.625721E3,6.592067E2,8.076319E2,8.7523755E2,1.8039444E1,2.3419287E3,1.1943481E3,5.6730597E2,1.4902389E1,7.8350916E0,3.4801E1,2.3736523E3,2.3212527E3,1.1456267E3,8.2655475E2,2.3246216E3,3.3435825E1,3.2468723E1,1.1284244E1,6.601355E2,3.0592793E3,1.9324054E2,1.0654277E3,9.665742E3,2.9638962E3,8.2013855E2,8.446335E2,1.6830739E3,1.2212281E3,3.1505392E2,8.506418E2,7.300311E1,2.4478029E2,9.7781085E2,1.030678E3,7.435487E0,7.278438E1,3.191007E3,2.4100397E2],"tree_param":{"num_deleted":"0","num_feature":"10","num_nodes":"127","size_leaf_vector":"1"}},{"base_weights":[1.6359404E-2,2.5994373E-2,-4.281239E-2,3.3232688E-3,5.006707E-2,-1.9573312E-1,-1.5319262E-3,5.281311E-2,-1.2328993E-2,5.971867E-2,-2.7627932E-2,-2.4906938E-1,-7.657546E-2,-4.3890294E-2,6.9787696E-2,7.397784E-2,-1.9233933E-1,1.1029656E-1,-2.4387596E-2,6.933233E-2,7.184898E-3,-1.0748091E-1,6.828667E-2,1.0476976E-1,-2.7387583E-1,7.021896E-2,-1.0637572E-1,4.3849874E-2,-9.271788E-2,1.2864995E-1,4.8813783E-2,-9.087747E-2,1.1954876E-1,-2.7765802E-1,2.3444758E-1,2.1328138E-1,4.461834E-2,-5.2114807E-2,2.7725114E-2,4.2444933E-2,1.0215636E-1,-2.633843E-1,4.2665772E-2,-8.287278E-2,-3.2729962E-1,4.0038798E-2,1.957914E-1,1.2890477E-1,-4.0860526E-2,-2.416732E-1,-3.8880548E-1,8.2121626E-2,-2.7682778E-1,-2.0846485E-1,-8.705805E-2,6.967271E-2,-2.3435894E-2,-1.4693202E-1,1.6430736E-2,1.8184842E-1,-3.0252207E-3,2.9133607E-2,1.3021255E-1,-3.5627368E-3,-1.3290867E-1,4.930464E-2,-1.5116551E-2,-1.3070199E-1,-2.2332575E-3,1.4309527E-1,3.8876653E-2,5.6421243E-2,7.7486284E-2,7.882178E-5,4.3015957E-2,-2.0512182E-2,4.3785065E-2,1.4014213E-1,-4.9395993E-4,-5.8355182E-3,2.359049E-2,-3.9318368E-2,3.5188187E-2,-1.5387171E-2,-1.486072E-1,7.317383E-2,1.4540406E-3,-8.260957E-2,-1.4422263E-2,-1.1188874E-1,-8.82428E-3,2.537132E-3,8.9898214E-2,7.5814955E-2,-4.1345034E-2,3.5140626E-2,5.0976552E-2,-5.8142827E-3,-7.9214185E-2,-8.5124925E-2,-4.6283383E-2,-1.3591644E-1,-1.05209015E-1,1.7490786E-2,1.2576607E-1,4.9758465E-3,-1.1853403E-1,-2.0340864E-2,-7.819218E-2,1.0302717E-1,-3.0032212E-2,2.5709426E-2,7.2253715E-5,-1.3777184E-1,-5.0049643E-3,-1.3235793E-1,-4.0334135E-2,-5.4504145E-2,1.3094137E-2,4.5409046E-2,8.217342E-2,-4.943342E-3,4.5866385E-2,-4.3740224E-2,1.1180136E-2,1.22591354E-1,3.3861067E-2],"categories":[],"categories_nodes":[],"categories_segments":[],"categories_sizes":[],"default_left":[0,0,0,0,0,0,0,0,0,0,0,0,0,0,0,0,0,0,0,0,0,0,0,0,0,0,0,0,0,0,0,0,0,0,0,0,0,0,0,0,0,0,0,0,0,0,0,0,0,0,0,0,0,0,0,0,0,0,0,0,0,0,0,0,0,0,0,0,0,0,0,0,0,0,0,0,0,0,0,0,0,0,0,0,0,0,0,0,0,0,0,0,0,0,0,0,0,0,0,0,0,0,0,0,0,0,0,0,0,0,0,0,0,0,0,0,0,0,0,0,0,0,0,0,0,0,0],"id":7,"left_children":[1,3,5,7,9,11,13,15,17,19,21,23,25,27,29,31,33,35,37,39,41,43,45,47,49,51,53,55,57,59,61,63,65,67,69,71,73,75,77,79,81,83,85,87,89,91,93,95,97,99,101,103,105,107,109,111,113,115,117,119,121,123,125,-1,-1,-1,-1,-1,-1,-1,-1,-1,-1,-1,-1,-1,-1,-1,-1,-1,-1,-1,-1,-1,-1,-1,-1,-1,-1,-1,-1,-1,-1,-1,-1,-1,-1,-1,-1,-1,-1,-1,-1,-1,-1,-1,-1,-1,-1,-1,-1,-1,-1,-1,-1,-1,-1,-1,-1,-1,-1,-1,-1,-1,-1,-1,-1],"loss_changes":[7.254565E1,5.9720314E1,1.1248065E2,4.3655033E1,3.9800095E1,2.405252E1,4.2392933E1,7.027376E1,6.3313114E1,2.3841965E1,4.492878E1,2.2990402E1,5.1369505E0,3.772135E1,6.449148E0,9.3661156E1,3.926069E1,2.591991E1,5.6328983E1,3.5214798E1,7.0129105E1,1.7287766E1,9.591516E0,6.1018145E-1,8.954605E0,8.425912E-1,1.9048824E0,5.471976E0,3.3474476E1,9.618851E0,6.1745806E0,7.511608E1,7.436284E1,3.8319946E1,4.5128565E0,1.6448975E0,1.0260061E1,8.19518E1,1.7473633E2,4.914462E1,6.345053E1,4.1641804E1,4.915053E1,1.927841E1,4.367882E0,1.7897238E1,9.209482E0,5.148387E-2,1.1581986E-1,6.988716E0,1.1472855E0,1.5225348E0,2.4291146E-1,1.115766E0,4.650113E0,2.5318165E0,2.5641584E0,1.3825691E1,1.0134416E1,2.70327E0,8.3330256E-1,4.426407E0,3.578352E0,0E0,0E0,0E0,0E0,0E0,0E0,0E0,0E0,0E0,0E0,0E0,0E0,0E0,0E0,0E0,0E0,0E0,0E0,0E0,0E0,0E0,0E0,0E0,0E0,0E0,0E0,0E0,0E0,0E0,0E0,0E0,0E0,0E0,0E0,0E0,0E0,0E0,0E0,0E0,0E0,0E0,0E0,0E0,0E0,0E0,0E0,0E0,0E0,0E0,0E0,0E0,0E0,0E0,0E0,0E0,0E0,0E0,0E0,0E0,0E0,0E0,0E0,0E0,0E0],"parents":[2147483647,0,0,1,1,2,2,3,3,4,4,5,5,6,6,7,7,8,8,9,9,10,10,11,11,12,12,13,13,14,14,15,15,16,16,17,17,18,18,19,19,20,20,21,21,22,22,23,23,24,24,25,25,26,26,27,27,28,28,29,29,30,30,31,31,32,32,33,33,34,34,35,35,36,36,37,37,38,38,39,39,40,40,41,41,42,42,43,43,44,44,45,45,46,46,47,47,48,48,49,49,50,50,51,51,52,52,53,53,54,54,55,55,56,56,57,57,58,58,59,59,60,60,61,61,62,62],"right_children":[2,4,6,8,10,12,14,16,18,20,22,24,26,28,30,32,34,36,38,40,42,44,46,48,50,52,54,56,58,60,62,64,66,68,70,72,74,76,78,80,82,84,86,88,90,92,94,96,98,100,102,104,106,108,110,112,114,116,118,120,122,124,126,-1,-1,-1,-1,-1,-1,-1,-1,-1,-1,-1,-1,-1,-1,-1,-1,-1,-1,-1,-1,-1,-1,-1,-1,-1,-1,-1,-1,-1,-1,-1,-1,-1,-1,-1,-1,-1,-1,-1,-1,-1,-1,-1,-1,-1,-1,-1,-1,-1,-1,-1,-1,-1,-1,-1,-1,-1,-1,-1,-1,-1,-1,-1,-1],"split_conditions":[2.3599138E0,1.6029412E0,1.9594672E0,-4.527382E-1,2.4211383E0,1.8497095E0,1.8859944E0,1.6138669E0,1.2789382E0,1.8382353E0,1.5982419E0,1.2E0,1.7205882E0,1.2058823E0,-4.958485E-1,1.2362032E0,1.9109341E0,1.3679922E0,1.6138669E0,1.6294919E0,1.367647E0,1.3382353E0,1.9721587E0,1.4134467E0,1.6470588E0,2.870118E0,1.3888888E0,1.5306122E0,2.4705882E0,2.0799491E0,4.81927E-2,1.9172444E0,1.7794118E0,1.9594672E0,1.7013255E0,1.452052E0,2.13764E-2,1.8547444E0,1.2941177E0,2.0558527E0,1.382353E0,1.6462141E0,1.5102041E0,1.4589013E0,2.645628E0,2.788485E0,2.7068524E0,1.9112743E0,-7.019168E-1,1.5686275E0,1.9474189E0,-8.06948E-2,1.8497096E0,2.4211383E0,1.6823587E0,1.1470588E0,1.7224865E0,1.4740528E0,1.5994096E0,1.9117647E0,2.768077E0,1.7425997E0,2.012975E0,-3.5627368E-3,-1.3290867E-1,4.930464E-2,-1.5116551E-2,-1.3070199E-1,-2.2332575E-3,1.4309527E-1,3.8876653E-2,5.6421243E-2,7.7486284E-2,7.882178E-5,4.3015957E-2,-2.0512182E-2,4.3785065E-2,1.4014213E-1,-4.9395993E-4,-5.8355182E-3,2.359049E-2,-3.9318368E-2,3.5188187E-2,-1.5387171E-2,-1.486072E-1,7.317383E-2,1.4540406E-3,-8.260957E-2,-1.4422263E-2,-1.1188874E-1,-8.82428E-3,2.537132E-3,8.9898214E-2,7.5814955E-2,-4.1345034E-2,3.5140626E-2,5.0976552E-2,-5.8142827E-3,-7.9214185E-2,-8.5124925E-2,-4.6283383E-2,-1.3591644E-1,-1.05209015E-1,1.7490786E-2,1.2576607E-1,4.9758465E-3,-1.1853403E-1,-2.0340864E-2,-7.819218E-2,1.0302717E-1,-3.0032212E-2,2.5709426E-2,7.2253715E-5,-1.3777184E-1,-5.0049643E-3,-1.3235793E-1,-4.0334135E-2,-5.4504145E-2,1.3094137E-2,4.5409046E-2,8.217342E-2,-4.943342E-3,4.5866385E-2,-4.3740224E-2,1.1180136E-2,1.22591354E-1,3.3861067E-2],"split_indices":[5,3,4,9,0,0,0,1,1,6,5,2,2,3,8,1,0,5,1,5,2,7,4,1,3,1,6,2,6,1,9,4,6,4,4,4,8,5,2,1,2,0,7,4,1,1,1,4,9,2,1,9,0,1,4,3,0,1,1,2,5,1,4,0,0,0,0,0,0,0,0,0,0,0,0,0,0,0,0,0,0,0,0,0,0,0,0,0,0,0,0,0,0,0,0,0,0,0,0,0,0,0,0,0,0,0,0,0,0,0,0,0,0,0,0,0,0,0,0,0,0,0,0,0,0,0,0],"split_type":[0,0,0,0,0,0,0,0,0,0,0,0,0,0,0,0,0,0,0,0,0,0,0,0,0,0,0,0,0,0,0,0,0,0,0,0,0,0,0,0,0,0,0,0,0,0,0,0,0,0,0,0,0,0,0,0,0,0,0,0,0,0,0,0,0,0,0,0,0,0,0,0,0,0,0,0,0,0,0,0,0,0,0,0,0,0,0,0,0,0,0,0,0,0,0,0,0,0,0,0,0,0,0,0,0,0,0,0,0,0,0,0,0,0,0,0,0,0,0,0,0,0,0,0,0,0,0],"sum_hessian":[1.272437E5,1.0942633E5,1.7817377E4,5.6354297E4,5.3072027E4,3.786563E3,1.4030813E4,1.3540169E4,4.281413E4,4.7207895E4,5.8641313E3,2.6149795E3,1.1715834E3,8.802933E3,5.2278804E3,1.2464748E4,1.0754204E3,3.8325247E3,3.8981605E4,3.9904977E4,7.3029185E3,3.1999316E3,2.6641997E3,1.7110562E2,2.4438738E3,1.9747519E2,9.741082E2,3.1473823E3,5.655551E3,1.3720778E3,3.8558025E3,2.6992104E3,9.765538E3,8.965426E2,1.7887779E2,1.4915289E3,2.3409956E3,2.5443875E4,1.3537729E4,2.1937465E4,1.7967512E4,8.458943E2,6.4570244E3,2.879011E3,3.209208E2,2.182086E3,4.821136E2,1.4687859E2,2.4227036E1,1.9114105E3,5.3246344E2,1.9166502E2,5.810167E0,1.5343742E2,8.206708E2,2.2744583E3,8.729239E2,3.7784485E3,1.8771023E3,9.769829E2,3.9509482E2,3.1061672E3,7.4963525E2,2.205469E3,4.9374142E2,7.728207E3,2.0373306E3,5.6533466E2,3.3120798E2,5.2921764E1,1.2595603E2,9.593312E2,5.321978E2,1.6161879E3,7.2480786E2,2.3514248E4,1.9296273E3,8.4726685E2,1.2690462E4,8.09421E3,1.3843256E4,1.0946777E3,1.6872834E4,4.425188E2,4.033755E2,1.0206051E3,5.436419E3,4.3972217E2,2.4392888E3,2.7804697E2,4.2873837E1,1.9463545E3,2.357316E2,4.1204663E2,7.006695E1,1.1712635E2,2.9752235E1,2.3091534E1,1.1355013E0,1.288712E3,6.226985E2,1.9418683E2,3.3827658E2,1.801115E2,1.1553522E1,1.9163456E0,3.8938212E0,4.213746E1,1.1129997E2,2.3400429E1,7.972703E2,1.8477502E3,4.2670813E2,1.2296943E1,8.6062695E2,1.5238947E2,3.6260588E3,2.2604187E2,1.6510604E3,7.3593567E2,2.4104723E2,3.64536E2,3.0558784E1,1.3725177E2,2.9689155E3,4.2631878E1,7.070034E2],"tree_param":{"num_deleted":"0","num_feature":"10","num_nodes":"127","size_leaf_vector":"1"}},{"base_weights":[1.351507E-2,1.954351E-2,-5.683143E-2,1.9367619E-3,4.1139342E-2,-2.1446365E-1,-1.992878E-2,8.6984135E-2,-4.423912E-3,4.5403063E-2,-8.2674436E-2,-2.7181816E-1,-1.0603372E-1,6.279732E-2,-4.0937454E-2,1.1223687E-1,-3.854676E-1,3.279388E-2,-2.173027E-2,3.989617E-2,1.0573622E-1,-2.068679E-1,-1.9850673E-2,5.9062853E-2,-2.9580262E-1,-6.2184837E-2,-1.9030955E-1,1.5274289E-2,1.05544284E-1,-1.03899956E-1,3.4872357E-2,2.3295134E-1,7.044147E-2,-1.455866E-1,-4.7556746E-1,1.1572508E-1,1.3514409E-2,-5.8315206E-2,9.36774E-3,-1.992156E-2,4.6394266E-2,1.3511261E-1,2.9166393E-2,-2.0808619E-2,-3.045954E-1,4.3887023E-2,-1.1371932E-1,8.768603E-2,-5.9933607E-2,-3.703484E-1,-2.2524154E-1,-1.3009846E-1,1.1197682E-2,-3.820664E-1,-1.5968175E-1,4.390745E-2,-1.7361042E-1,1.2326113E-1,-2.7491089E-2,-1.3707666E-1,5.3394516E-3,6.012121E-1,3.2150064E-2,6.8153575E-2,2.1000001E-1,-3.731902E-2,5.1459152E-2,-1.4000148E-1,-9.79994E-3,-8.536367E-2,-1.4798817E-1,4.27283E-2,-9.5416844E-2,-1.3684248E-2,2.3027128E-2,-3.53569E-2,4.250973E-3,1.5017821E-2,-2.1108162E-2,-2.3803737E-2,9.576161E-3,7.0991546E-2,1.3224131E-2,4.4206142E-2,2.3745354E-3,-2.151879E-3,8.671769E-2,4.19247E-2,-5.893575E-2,-3.713114E-2,-1.158319E-1,1.2088322E-2,9.118511E-2,-1.0752111E-1,-6.850466E-4,2.437978E-2,3.9636195E-2,-7.6269954E-2,-9.455066E-3,-1.2166923E-1,-6.689854E-2,-2.1520238E-2,-8.591915E-2,1.7875781E-2,-4.5589335E-2,1.4538375E-1,-5.7033747E-3,-7.699061E-2,-1.40192E-1,4.225856E-2,-5.2532967E-2,1.1701421E-2,1.1437674E-1,-6.916429E-2,2.2180874E-2,1.860238E-2,5.1455468E-2,4.0168818E-2,-3.0031737E-2,-2.795702E-2,-6.562115E-2,3.1141443E-2,-1.0407442E-2,7.340649E-2,2.1000001E-1,3.0029915E-2,2.672291E-3],"categories":[],"categories_nodes":[],"categories_segments":[],"categories_sizes":[],"default_left":[0,0,0,0,0,0,0,0,0,0,0,0,0,0,0,0,0,0,0,0,0,0,0,0,0,0,0,0,0,0,0,0,0,0,0,0,0,0,0,0,0,0,0,0,0,0,0,0,0,0,0,0,0,0,0,0,0,0,0,0,0,0,0,0,0,0,0,0,0,0,0,0,0,0,0,0,0,0,0,0,0,0,0,0,0,0,0,0,0,0,0,0,0,0,0,0,0,0,0,0,0,0,0,0,0,0,0,0,0,0,0,0,0,0,0,0,0,0,0,0,0,0,0,0,0,0,0],"id":8,"left_children":[1,3,5,7,9,11,13,15,17,19,21,23,25,27,29,31,33,35,37,39,41,43,45,47,49,51,53,55,57,59,61,63,65,67,69,71,73,75,77,79,81,83,85,87,89,91,93,95,97,99,101,103,105,107,109,111,113,115,117,119,121,123,125,-1,-1,-1,-1,-1,-1,-1,-1,-1,-1,-1,-1,-1,-1,-1,-1,-1,-1,-1,-1,-1,-1,-1,-1,-1,-1,-1,-1,-1,-1,-1,-1,-1,-1,-1,-1,-1,-1,-1,-1,-1,-1,-1,-1,-1,-1,-1,-1,-1,-1,-1,-1,-1,-1,-1,-1,-1,-1,-1,-1,-1,-1,-1,-1],"loss_changes":[5.426389E1,4.4812294E1,5.874767E1,3.512207E1,2.7946648E1,1.1885597E1,1.422805E1,5.394472E1,3.8909782E1,1.6996872E1,1.3747049E1,9.956459E0,2.4435234E0,3.366703E0,3.1163204E1,2.1625065E1,4.890045E0,3.0655706E1,4.691401E1,1.8227768E1,9.621624E0,1.0757046E1,7.0140657E0,2.9640377E-1,6.059845E0,2.1869342E0,1.2716446E0,4.260447E0,2.0603828E0,1.2926308E1,4.548239E0,3.1350784E0,6.280579E1,2.3085747E0,4.2295837E-1,4.1936962E1,5.8184536E1,8.176999E1,7.231716E1,1.4159708E1,1.8608498E1,4.8139305E0,1.1220191E1,5.8064203E0,5.6713676E0,6.4032674E-1,1.2924839E1,9.035826E-3,8.677992E-2,2.8485413E0,5.6360397E0,9.5400953E-1,3.0367796E0,2.0652342E-1,9.398637E-1,1.1157984E0,1.478836E0,2.2664328E0,1.2249627E0,9.783714E0,3.2822382E0,1.1891136E0,4.6572714E0,0E0,0E0,0E0,0E0,0E0,0E0,0E0,0E0,0E0,0E0,0E0,0E0,0E0,0E0,0E0,0E0,0E0,0E0,0E0,0E0,0E0,0E0,0E0,0E0,0E0,0E0,0E0,0E0,0E0,0E0,0E0,0E0,0E0,0E0,0E0,0E0,0E0,0E0,0E0,0E0,0E0,0E0,0E0,0E0,0E0,0E0,0E0,0E0,0E0,0E0,0E0,0E0,0E0,0E0,0E0,0E0,0E0,0E0,0E0,0E0,0E0,0E0,0E0,0E0],"parents":[2147483647,0,0,1,1,2,2,3,3,4,4,5,5,6,6,7,7,8,8,9,9,10,10,11,11,12,12,13,13,14,14,15,15,16,16,17,17,18,18,19,19,20,20,21,21,22,22,23,23,24,24,25,25,26,26,27,27,28,28,29,29,30,30,31,31,32,32,33,33,34,34,35,35,36,36,37,37,38,38,39,39,40,40,41,41,42,42,43,43,44,44,45,45,46,46,47,47,48,48,49,49,50,50,51,51,52,52,53,53,54,54,55,55,56,56,57,57,58,58,59,59,60,60,61,61,62,62],"right_children":[2,4,6,8,10,12,14,16,18,20,22,24,26,28,30,32,34,36,38,40,42,44,46,48,50,52,54,56,58,60,62,64,66,68,70,72,74,76,78,80,82,84,86,88,90,92,94,96,98,100,102,104,106,108,110,112,114,116,118,120,122,124,126,-1,-1,-1,-1,-1,-1,-1,-1,-1,-1,-1,-1,-1,-1,-1,-1,-1,-1,-1,-1,-1,-1,-1,-1,-1,-1,-1,-1,-1,-1,-1,-1,-1,-1,-1,-1,-1,-1,-1,-1,-1,-1,-1,-1,-1,-1,-1,-1,-1,-1,-1,-1,-1,-1,-1,-1,-1,-1,-1,-1,-1,-1,-1,-1],"split_conditions":[2.5639954E0,1.6617647E0,1.9112743E0,1.02E0,1.0330367E0,1.8148888E0,1.1470588E0,1.8497095E0,1.3831437E0,1.3708732E0,1.4437498E0,1.2E0,2.5844035E0,2.7476687E0,1.8701178E0,1.3137255E0,4.660969E-1,1.1764706E0,1.6674212E0,1.4895877E0,1.686174E0,1.3327519E0,1.2884616E0,1.4134467E0,1.7907925E0,1.8148888E0,2.6252198E0,-3.457804E-1,1.7319297E0,2.4705882E0,1.9313422E0,1.6944069E0,3.998334E-1,1.6138669E0,2.67812E-1,1.6823587E0,1.5192307E0,1.6138669E0,1.7352941E0,7.693737E-1,1.5016358E0,1.4589013E0,1.5377804E0,1.151167E0,2.5639954E0,1.7305515E0,1.5982419E0,1.3679922E0,1.393358E0,1.5882353E0,1.25E0,2.6048117E0,1.8293015E0,2.6048117E0,1.8510334E0,-3.564224E-1,2.7068524E0,1.3679922E0,-1.5525177E0,1.5441177E0,1.5147059E0,2.0129747E0,-4.130812E-1,6.8153575E-2,2.1000001E-1,-3.731902E-2,5.1459152E-2,-1.4000148E-1,-9.79994E-3,-8.536367E-2,-1.4798817E-1,4.27283E-2,-9.5416844E-2,-1.3684248E-2,2.3027128E-2,-3.53569E-2,4.250973E-3,1.5017821E-2,-2.1108162E-2,-2.3803737E-2,9.576161E-3,7.0991546E-2,1.3224131E-2,4.4206142E-2,2.3745354E-3,-2.151879E-3,8.671769E-2,4.19247E-2,-5.893575E-2,-3.713114E-2,-1.158319E-1,1.2088322E-2,9.118511E-2,-1.0752111E-1,-6.850466E-4,2.437978E-2,3.9636195E-2,-7.6269954E-2,-9.455066E-3,-1.2166923E-1,-6.689854E-2,-2.1520238E-2,-8.591915E-2,1.7875781E-2,-4.5589335E-2,1.4538375E-1,-5.7033747E-3,-7.699061E-2,-1.40192E-1,4.225856E-2,-5.2532967E-2,1.1701421E-2,1.1437674E-1,-6.916429E-2,2.2180874E-2,1.860238E-2,5.1455468E-2,4.0168818E-2,-3.0031737E-2,-2.795702E-2,-6.562115E-2,3.1141443E-2,-1.0407442E-2,7.340649E-2,2.1000001E-1,3.0029915E-2,2.672291E-3],"split_indices":[5,3,4,7,8,0,3,0,1,9,5,2,1,5,0,2,9,7,5,4,4,5,6,1,4,4,1,8,0,6,4,4,9,1,8,0,2,1,6,9,4,5,5,8,0,5,5,1,0,2,3,5,4,1,0,8,5,1,9,3,3,0,8,0,0,0,0,0,0,0,0,0,0,0,0,0,0,0,0,0,0,0,0,0,0,0,0,0,0,0,0,0,0,0,0,0,0,0,0,0,0,0,0,0,0,0,0,0,0,0,0,0,0,0,0,0,0,0,0,0,0,0,0,0,0,0,0],"split_type":[0,0,0,0,0,0,0,0,0,0,0,0,0,0,0,0,0,0,0,0,0,0,0,0,0,0,0,0,0,0,0,0,0,0,0,0,0,0,0,0,0,0,0,0,0,0,0,0,0,0,0,0,0,0,0,0,0,0,0,0,0,0,0,0,0,0,0,0,0,0,0,0,0,0,0,0,0,0,0,0,0,0,0,0,0,0,0,0,0,0,0,0,0,0,0,0,0,0,0,0,0,0,0,0,0,0,0,0,0,0,0,0,0,0,0,0,0,0,0,0,0,0,0,0,0,0,0],"sum_hessian":[1.2795322E5,1.1785426E5,1.009896E4,6.4923902E4,5.293036E4,1.9148281E3,8.184132E3,4.51688E3,6.0407023E4,5.116891E4,1.7614485E3,1.251392E3,6.6343616E2,1.6570718E3,6.52706E3,4.2884243E3,2.2845558E2,1.917334E4,4.1233684E4,4.689064E4,4.2782705E3,5.9094434E2,1.1705042E3,8.44796E1,1.1669124E3,4.375276E2,2.2590855E2,7.853418E2,8.7173004E2,3.56546E3,2.9616E3,1.1017501E3,3.186674E3,6.309307E1,1.653625E2,3.6156243E3,1.5557716E4,1.8945072E4,2.2288611E4,4.5944756E3,4.2296164E4,3.0914539E3,1.1868167E3,2.039209E2,3.8702344E2,6.974568E2,4.730473E2,6.8311264E1,1.616834E1,5.653683E2,6.0154407E2,2.268297E2,2.1069789E2,2.9532818E1,1.9637573E2,6.826291E2,1.0271266E2,7.6934656E2,1.0238346E2,2.7346687E3,8.307912E2,1.3116071E1,2.9484841E3,1.0912023E3,1.0547755E1,1.0884923E3,2.098182E3,1.5600569E1,4.74925E1,1.5490234E1,1.4987227E2,3.4065938E3,2.0903055E2,8.0405264E3,7.517189E3,1.0400889E4,8.544183E3,1.4757208E4,7.5314023E3,2.1404478E3,2.4540278E3,5.070258E2,4.178914E4,2.8199138E3,2.7154007E2,1.0420807E3,1.4473592E2,1.06642456E2,9.727844E1,1.2103533E2,2.6598813E2,6.8909235E2,8.364461E0,1.4733075E2,3.2571655E2,6.2159134E1,6.1521277E0,1.0490239E0,1.5119316E1,4.5490015E2,1.10468124E2,1.7199371E2,4.2955035E2,2.326696E1,2.0356273E2,1.1736052E1,1.9896184E2,1.35721445E1,1.5960674E1,9.191566E0,1.8718416E2,6.7395013E2,8.678956E0,8.356165E1,1.915101E1,3.4002917E2,4.293174E2,3.1509422E1,7.087404E1,1.780123E3,9.5454565E2,2.3967116E2,5.9112E2,7.764086E0,5.351985E0,7.5064716E2,2.197837E3],"tree_param":{"num_deleted":"0","num_feature":"10","num_nodes":"127","size_leaf_vector":"1"}},{"base_weights":[1.1271343E-2,-9.237139E-5,3.9928947E-2,9.96003E-2,-7.1689053E-3,-1.7892241E-2,7.3478706E-2,-2.870521E-1,1.19458765E-1,-5.774678E-3,-3.6365867E-1,-8.970976E-2,4.5694392E-2,9.512802E-2,3.70953E-2,9.848977E-2,-1.4820863E-1,2.0281143E-1,7.627614E-2,1.3850895E-2,-3.0216241E-2,-4.5631066E-1,-3.7366882E-2,-4.276418E-1,-6.1426386E-2,7.9238266E-2,-2.2719992E-2,1.0416369E-1,-1.07590735E-1,4.6011973E-2,-8.7524645E-2,-1.012489E-1,2.8781602E-1,1.441109E-1,2.3586021E-1,-4.6792147E-1,9.953017E-2,-1.2333863E-2,1.1004094E-1,8.120743E-3,-7.201064E-2,-1.4833781E-1,-1.2230739E-1,-8.790211E-2,-2.8396504E-2,-4.7281855E-1,2.318571E-2,-1.6921164E-2,-1.478465E-1,1.0871154E-1,-6.50139E-2,2.741633E-3,-1.4089745E-1,1.3501783E-1,4.5053825E-2,-4.488764E-2,-1.6289201E-1,-1.24269426E-1,5.0950497E-2,2.1000001E-1,-9.975109E-2,2.7726623E-3,-1.3688837E-1,2.5660278E-2,1.65049E-1,5.3751588E-2,-1.18350945E-1,8.326645E-2,5.7262763E-2,-1.4786322E-1,-9.264454E-2,2.2775274E-2,4.6825394E-2,-1.8511409E-2,7.4308314E-3,-1.4497918E-1,3.912577E-2,1.6867204E-2,-1.226122E-2,-8.080527E-2,-1.4346148E-2,1.0731939E-1,-5.8843702E-2,-1.1307525E-2,-4.085564E-3,-1.4513187E-1,-2.8130028E-2,9.739547E-2,-1.9331641E-2,-1.3106069E-2,3.0250203E-2,-1.877274E-2,-8.159442E-2,4.722714E-2,-3.5187795E-3,-3.225234E-2,6.8759336E-3,-4.048895E-3,5.3180534E-2,-3.7005052E-2,-1.4170699E-1,3.6194712E-2,7.1961895E-2,3.7627148E-3,3.388097E-2,-2.234841E-2,2.8142149E-2,-5.1071007E-2,2.1000001E-1,-1.8326141E-2,-6.905185E-2,3.3910938E-2,1.1477036E-2,6.1195727E-2,-3.5832934E-2],"categories":[],"categories_nodes":[],"categories_segments":[],"categories_sizes":[],"default_left":[0,0,0,0,0,0,0,0,0,0,0,0,0,0,0,0,0,0,0,0,0,0,0,0,0,0,0,0,0,0,0,0,0,0,0,0,0,0,0,0,0,0,0,0,0,0,0,0,0,0,0,0,0,0,0,0,0,0,0,0,0,0,0,0,0,0,0,0,0,0,0,0,0,0,0,0,0,0,0,0,0,0,0,0,0,0,0,0,0,0,0,0,0,0,0,0,0,0,0,0,0,0,0,0,0,0,0,0,0,0,0,0,0,0,0],"id":9,"left_children":[1,3,5,7,9,11,13,15,17,19,21,23,25,27,29,31,-1,33,35,37,39,41,43,45,47,49,51,53,55,57,59,61,63,65,67,69,71,73,75,77,79,-1,81,-1,83,85,87,89,91,93,95,97,99,101,103,105,107,109,111,-1,113,-1,-1,-1,-1,-1,-1,-1,-1,-1,-1,-1,-1,-1,-1,-1,-1,-1,-1,-1,-1,-1,-1,-1,-1,-1,-1,-1,-1,-1,-1,-1,-1,-1,-1,-1,-1,-1,-1,-1,-1,-1,-1,-1,-1,-1,-1,-1,-1,-1,-1,-1,-1,-1,-1],"loss_changes":[4.1853264E1,6.492484E1,7.079173E1,4.6869038E1,4.2707436E1,6.1197083E1,1.8186287E1,2.384972E1,2.0869392E1,4.1059147E1,1.0102833E1,6.0122E1,1.6313719E1,2.652951E1,9.578718E0,4.0006685E0,0E0,3.8063202E0,4.8435707E1,1.1957991E2,6.108089E1,3.260357E0,1.6394445E-1,9.906342E0,2.2336742E1,2.0285774E1,7.039212E0,2.5271912E1,2.1365142E0,6.7690525E0,5.909701E0,2.0381007E0,2.8280153E0,1.3584767E1,2.319542E0,4.706726E-1,4.886265E0,6.836217E1,1.2288637E2,4.686156E1,8.705087E1,0E0,1.0642252E0,0E0,9.6078515E-3,1.7884827E0,1.2150633E0,1.2091468E1,2.0880524E1,2.3239983E1,3.0284863E0,5.45942E0,2.3535986E0,1.3690842E1,1.0492715E1,1.2024124E0,2.317893E0,1.5045025E0,6.155411E0,0E0,3.4231071E0,0E0,0E0,0E0,0E0,0E0,0E0,0E0,0E0,0E0,0E0,0E0,0E0,0E0,0E0,0E0,0E0,0E0,0E0,0E0,0E0,0E0,0E0,0E0,0E0,0E0,0E0,0E0,0E0,0E0,0E0,0E0,0E0,0E0,0E0,0E0,0E0,0E0,0E0,0E0,0E0,0E0,0E0,0E0,0E0,0E0,0E0,0E0,0E0,0E0,0E0,0E0,0E0,0E0,0E0],"parents":[2147483647,0,0,1,1,2,2,3,3,4,4,5,5,6,6,7,7,8,8,9,9,10,10,11,11,12,12,13,13,14,14,15,15,17,17,18,18,19,19,20,20,21,21,22,22,23,23,24,24,25,25,26,26,27,27,28,28,29,29,30,30,31,31,32,32,33,33,34,34,35,35,36,36,37,37,38,38,39,39,40,40,42,42,44,44,45,45,46,46,47,47,48,48,49,49,50,50,51,51,52,52,53,53,54,54,55,55,56,56,57,57,58,58,60,60],"right_children":[2,4,6,8,10,12,14,16,18,20,22,24,26,28,30,32,-1,34,36,38,40,42,44,46,48,50,52,54,56,58,60,62,64,66,68,70,72,74,76,78,80,-1,82,-1,84,86,88,90,92,94,96,98,100,102,104,106,108,110,112,-1,114,-1,-1,-1,-1,-1,-1,-1,-1,-1,-1,-1,-1,-1,-1,-1,-1,-1,-1,-1,-1,-1,-1,-1,-1,-1,-1,-1,-1,-1,-1,-1,-1,-1,-1,-1,-1,-1,-1,-1,-1,-1,-1,-1,-1,-1,-1,-1,-1,-1,-1,-1,-1,-1,-1],"split_conditions":[1.7777778E0,1.2362032E0,1.584025E0,1.4437498E0,5.238864E-1,1.0227726E0,1.7205882E0,1.3137255E0,1.4230769E0,1.6029412E0,1.4589013E0,1.2362032E0,1.707102E0,2.4117646E0,9.305671E-1,9.767442E-1,-1.4820863E-1,3.4097E-1,1.5498104E0,1.8088933E0,1.382353E0,7.693737E-1,1.3679922E0,2.0712674E0,2.3190975E0,1.5043558E0,1.6730769E0,5.712349E-1,-1.428571E-1,1.6451169E0,2.5844035E0,1.2745098E0,-1.456538E-1,1.3529412E0,-8.23111E-2,1.192714E0,2.1160936E0,3.5002E-3,-6.232152E-1,1.6122448E0,1.382353E0,-1.4833781E-1,1.9109341E0,-8.790211E-2,2.0129747E0,2.2986891E0,1.9956117E0,1.3529412E0,1.3235294E0,2.3190975E0,2.3395054E0,1.2156863E0,1.5016358E0,2.7476687E0,1.8234944E0,1.8510334E0,6.127559E-1,2.0946074E0,1.75E0,2.1000001E-1,1.4558823E0,2.7726623E-3,-1.3688837E-1,2.5660278E-2,1.65049E-1,5.3751588E-2,-1.18350945E-1,8.326645E-2,5.7262763E-2,-1.4786322E-1,-9.264454E-2,2.2775274E-2,4.6825394E-2,-1.8511409E-2,7.4308314E-3,-1.4497918E-1,3.912577E-2,1.6867204E-2,-1.226122E-2,-8.080527E-2,-1.4346148E-2,1.0731939E-1,-5.8843702E-2,-1.1307525E-2,-4.085564E-3,-1.4513187E-1,-2.8130028E-2,9.739547E-2,-1.9331641E-2,-1.3106069E-2,3.0250203E-2,-1.877274E-2,-8.159442E-2,4.722714E-2,-3.5187795E-3,-3.225234E-2,6.8759336E-3,-4.048895E-3,5.3180534E-2,-3.7005052E-2,-1.4170699E-1,3.6194712E-2,7.1961895E-2,3.7627148E-3,3.388097E-2,-2.234841E-2,2.8142149E-2,-5.1071007E-2,2.1000001E-1,-1.8326141E-2,-6.905185E-2,3.3910938E-2,1.1477036E-2,6.1195727E-2,-3.5832934E-2],"split_indices":[2,5,5,1,8,9,6,2,2,7,4,5,4,7,9,7,0,9,1,4,3,9,5,1,0,5,6,8,9,1,1,2,8,2,8,5,1,8,9,6,2,0,0,0,0,0,0,7,6,0,0,7,5,1,5,4,9,4,7,0,7,0,0,0,0,0,0,0,0,0,0,0,0,0,0,0,0,0,0,0,0,0,0,0,0,0,0,0,0,0,0,0,0,0,0,0,0,0,0,0,0,0,0,0,0,0,0,0,0,0,0,0,0,0,0],"split_type":[0,0,0,0,0,0,0,0,0,0,0,0,0,0,0,0,0,0,0,0,0,0,0,0,0,0,0,0,0,0,0,0,0,0,0,0,0,0,0,0,0,0,0,0,0,0,0,0,0,0,0,0,0,0,0,0,0,0,0,0,0,0,0,0,0,0,0,0,0,0,0,0,0,0,0,0,0,0,0,0,0,0,0,0,0,0,0,0,0,0,0,0,0,0,0,0,0,0,0,0,0,0,0,0,0,0,0,0,0,0,0,0,0,0,0],"sum_hessian":[1.2851852E5,9.202749E4,3.6491035E4,6.0986045E3,8.592889E4,1.339902E4,2.3092014E4,2.9726575E2,5.801339E3,8.559514E4,3.337454E2,6.292071E3,7.106949E3,1.4476444E4,8.61557E3,1.0402302E2,1.9324274E2,1.9785582E3,3.8227808E3,4.7475055E4,3.812009E4,2.5962518E2,7.412022E1,4.848556E2,5.807215E3,4.768684E3,2.3382651E3,1.3859192E4,6.172518E2,8.0408696E3,5.7470087E2,5.084593E1,5.317709E1,7.146224E2,1.2639358E3,1.5587303E2,3.6669077E3,3.7317414E4,1.0157638E4,1.9882844E4,1.8237244E4,2.3258029E2,2.7044895E1,1.4392841E0,7.268093E1,4.4064993E2,4.4205647E1,3.8339678E3,1.9732472E3,3.9598608E3,8.088233E2,1.9245852E3,4.1367984E2,9.1051875E3,4.754005E3,2.9011636E2,3.271354E2,2.2594864E2,7.814921E3,7.462114E0,5.672388E2,3.9520893E1,1.1325033E1,3.0774544E1,2.2402548E1,6.7157367E2,4.30487E1,6.532699E2,6.1066595E2,1.3292575E2,2.2947283E1,2.5885005E3,1.0784071E3,1.6011433E4,2.1305982E4,3.365456E2,9.821093E3,1.0032291E4,9.850554E3,1.9903206E3,1.6246924E4,3.092845E0,2.3952051E1,4.3665226E1,2.9015701E1,4.2800464E2,1.2645313E1,9.346085E0,3.4859562E1,3.1244175E3,7.095505E2,1.1706254E3,8.026217E2,2.819292E3,1.140569E3,5.451549E2,2.6366843E2,1.7616082E3,1.629771E2,3.9418408E2,1.9495766E1,8.009728E3,1.0954594E3,3.2152788E3,1.5387258E3,2.394616E2,5.0654766E1,3.2532767E2,1.8077434E0,1.4250597E2,8.344268E1,1.3252266E3,6.4896943E3,3.3966595E1,5.3327216E2],"tree_param":{"num_deleted":"0","num_feature":"10","num_nodes":"115","size_leaf_vector":"1"}},{"base_weights":[9.319542E-3,1.3832241E-2,-4.5322362E-2,5.532871E-4,2.9821323E-2,-1.5986742E-1,-3.4930815E-3,5.3510848E-3,-7.102472E-2,3.4377966E-2,-4.2227127E-2,-2.0976792E-1,-5.3755667E-2,-5.3051926E-2,2.07781E-2,7.648569E-2,-2.316856E-3,8.968153E-2,-1.5487666E-1,-1.1040741E-1,3.6247887E-2,-4.040387E-1,-1.8250782E-2,-8.3131656E-2,-2.7162004E-1,-3.798204E-2,-3.3100095E-1,4.1224148E-2,-1.2211481E-1,1.1674081E-1,-5.6162192E-3,1.3121656E-1,-1.6388813E-1,-2.3962287E-2,3.729181E-2,-3.603897E-3,1.4763191E-1,-3.6314577E-1,-1.0916622E-1,1.4224246E-1,-3.7515292E-1,1.9455652E-1,3.459456E-2,-4.3144172E-1,2.227856E-1,-4.3591768E-2,7.803594E-2,2.4231726E-2,-3.198265E-1,-4.0511242E-1,-2.129061E-1,-1.4362256E-1,-1.6024092E-2,4.738489E-2,-3.6712968E-1,4.8604067E-2,-1.3875702E-1,-1.7064512E-1,-8.56387E-3,1.0433541E-1,4.0544355E-1,-2.2904506E-1,1.5961364E-2,5.3270634E-2,1.5639635E-2,-1.261813E-1,-2.6961514E-3,-1.0861276E-2,2.7685056E-2,4.3589438E-4,2.7195195E-2,-1.2128404E-2,4.2672236E-2,5.6417882E-2,2.1629889E-2,-5.3133275E-2,-1.4740348E-1,-1.9310314E-2,-1.2668705E-1,8.7972015E-2,-7.7804187E-3,-4.0688246E-2,-1.4042716E-1,5.779754E-3,1.4425424E-1,-5.773818E-2,1.1141611E-2,-1.4173166E-1,-8.965144E-2,1.4813967E-1,-1.06058784E-1,-5.0047226E-4,-4.5893814E-2,-2.517757E-2,3.3946138E-2,3.012336E-2,-1.9714044E-2,-1.2535785E-1,-5.3436022E-2,-6.1805756E-3,-1.2493755E-1,-8.395618E-3,-7.6124E-2,-1.2127212E-2,-5.750928E-2,1.5311918E-1,-8.54821E-3,-1.1996445E-1,-4.639798E-2,2.8071864E-2,-5.241122E-4,-1.4433494E-1,-4.791511E-2,-3.447536E-2,1.9643309E-2,1.5301647E-2,4.997671E-2,1.7340127E-2,2.1000001E-1,-7.560204E-2,5.1948775E-2,-3.138139E-2,9.633565E-3],"categories":[],"categories_nodes":[],"categories_segments":[],"categories_sizes":[],"default_left":[0,0,0,0,0,0,0,0,0,0,0,0,0,0,0,0,0,0,0,0,0,0,0,0,0,0,0,0,0,0,0,0,0,0,0,0,0,0,0,0,0,0,0,0,0,0,0,0,0,0,0,0,0,0,0,0,0,0,0,0,0,0,0,0,0,0,0,0,0,0,0,0,0,0,0,0,0,0,0,0,0,0,0,0,0,0,0,0,0,0,0,0,0,0,0,0,0,0,0,0,0,0,0,0,0,0,0,0,0,0,0,0,0,0,0,0,0,0,0,0,0,0,0],"id":10,"left_children":[1,3,5,7,9,11,13,15,17,19,21,23,25,27,29,31,33,35,37,39,41,43,45,47,49,51,53,55,57,59,61,63,65,67,69,71,73,75,77,79,81,83,85,87,89,91,93,95,97,99,101,103,105,-1,107,109,-1,111,113,115,117,119,121,-1,-1,-1,-1,-1,-1,-1,-1,-1,-1,-1,-1,-1,-1,-1,-1,-1,-1,-1,-1,-1,-1,-1,-1,-1,-1,-1,-1,-1,-1,-1,-1,-1,-1,-1,-1,-1,-1,-1,-1,-1,-1,-1,-1,-1,-1,-1,-1,-1,-1,-1,-1,-1,-1,-1,-1,-1,-1,-1,-1],"loss_changes":[3.1813562E1,2.53028E1,4.715755E1,2.2358728E1,1.7752384E1,1.3929253E1,8.674398E0,3.32821E1,5.512735E1,1.3772015E1,2.7896526E1,1.4000557E1,3.6758943E0,1.5440786E1,1.226199E1,7.813188E1,4.7223877E1,7.584717E0,2.5549866E1,4.344061E1,1.3134018E1,3.5291328E0,7.366727E0,1.4973931E1,9.337936E0,1.8514658E0,8.5775137E-1,3.7517583E0,7.5403748E0,3.6978283E0,1.8312016E1,1.7720863E1,4.380167E1,5.068933E1,3.7221626E1,2.8981032E0,2.6289806E0,1.1440392E1,3.0912024E1,8.4546585E0,6.9936867E0,2.6021341E1,2.8710228E1,9.016838E-1,1.5851033E0,1.0958482E1,3.5876684E0,2.7890918E0,2.4795551E0,1.5889893E0,6.3156586E0,6.739223E-1,4.3651915E0,0E0,2.3361778E-1,2.2407498E0,0E0,3.1760807E0,3.2426975E0,3.3201904E0,6.5914702E0,3.133028E0,6.7486033E0,0E0,0E0,0E0,0E0,0E0,0E0,0E0,0E0,0E0,0E0,0E0,0E0,0E0,0E0,0E0,0E0,0E0,0E0,0E0,0E0,0E0,0E0,0E0,0E0,0E0,0E0,0E0,0E0,0E0,0E0,0E0,0E0,0E0,0E0,0E0,0E0,0E0,0E0,0E0,0E0,0E0,0E0,0E0,0E0,0E0,0E0,0E0,0E0,0E0,0E0,0E0,0E0,0E0,0E0,0E0,0E0,0E0,0E0,0E0,0E0],"parents":[2147483647,0,0,1,1,2,2,3,3,4,4,5,5,6,6,7,7,8,8,9,9,10,10,11,11,12,12,13,13,14,14,15,15,16,16,17,17,18,18,19,19,20,20,21,21,22,22,23,23,24,24,25,25,26,26,27,27,28,28,29,29,30,30,31,31,32,32,33,33,34,34,35,35,36,36,37,37,38,38,39,39,40,40,41,41,42,42,43,43,44,44,45,45,46,46,47,47,48,48,49,49,50,50,51,51,52,52,54,54,55,55,57,57,58,58,59,59,60,60,61,61,62,62],"right_children":[2,4,6,8,10,12,14,16,18,20,22,24,26,28,30,32,34,36,38,40,42,44,46,48,50,52,54,56,58,60,62,64,66,68,70,72,74,76,78,80,82,84,86,88,90,92,94,96,98,100,102,104,106,-1,108,110,-1,112,114,116,118,120,122,-1,-1,-1,-1,-1,-1,-1,-1,-1,-1,-1,-1,-1,-1,-1,-1,-1,-1,-1,-1,-1,-1,-1,-1,-1,-1,-1,-1,-1,-1,-1,-1,-1,-1,-1,-1,-1,-1,-1,-1,-1,-1,-1,-1,-1,-1,-1,-1,-1,-1,-1,-1,-1,-1,-1,-1,-1,-1,-1,-1],"split_conditions":[2.5639954E0,1.6617647E0,1.9956117E0,3.092244E-1,2.5639954E0,1.8751298E0,1.6977416E0,1.2352941E0,-8.76499E-2,1.25E0,1.4589013E0,1.25E0,2.048194E-1,1.2205882E0,1.5686275E0,1.3382353E0,1.7224865E0,1.9147384E0,1.3679922E0,1.4807693E0,1.2794118E0,1.5010123E0,1.7666961E0,-1.50264E-1,1.602714E0,1.7272655E0,1.5859731E0,1.4941176E0,2.4211383E0,1.56E0,1.74678E0,1.5195073E0,1.4052503E0,2.686808E-1,1.7787442E0,1.3888888E0,1.7787442E0,4.564492E-1,1.7666961E0,8.752436E-1,-3.674159E-1,1.5859731E0,1.3076923E0,2.6176472E0,1.3274997E0,1.617647E0,7.54107E-2,1.3235294E0,1.7907925E0,1.2E0,1.5994096E0,2.4007301E0,1.7476689E0,4.738489E-2,3.897357E-1,1.4589013E0,-1.3875702E-1,1.4589013E0,1.8126314E0,2.7476687E0,2.1762402E0,2.768077E0,1.5994096E0,5.3270634E-2,1.5639635E-2,-1.261813E-1,-2.6961514E-3,-1.0861276E-2,2.7685056E-2,4.3589438E-4,2.7195195E-2,-1.2128404E-2,4.2672236E-2,5.6417882E-2,2.1629889E-2,-5.3133275E-2,-1.4740348E-1,-1.9310314E-2,-1.2668705E-1,8.7972015E-2,-7.7804187E-3,-4.0688246E-2,-1.4042716E-1,5.779754E-3,1.4425424E-1,-5.773818E-2,1.1141611E-2,-1.4173166E-1,-8.965144E-2,1.4813967E-1,-1.06058784E-1,-5.0047226E-4,-4.5893814E-2,-2.517757E-2,3.3946138E-2,3.012336E-2,-1.9714044E-2,-1.2535785E-1,-5.3436022E-2,-6.1805756E-3,-1.2493755E-1,-8.395618E-3,-7.6124E-2,-1.2127212E-2,-5.750928E-2,1.5311918E-1,-8.54821E-3,-1.1996445E-1,-4.639798E-2,2.8071864E-2,-5.241122E-4,-1.4433494E-1,-4.791511E-2,-3.447536E-2,1.9643309E-2,1.5301647E-2,4.997671E-2,1.7340127E-2,2.1000001E-1,-7.560204E-2,5.1948775E-2,-3.138139E-2,9.633565E-3],"split_indices":[5,3,4,8,0,0,0,6,9,2,4,3,9,3,2,3,0,5,5,7,2,9,5,8,0,4,4,2,4,2,0,5,5,9,4,3,1,9,5,9,8,0,2,3,5,6,9,2,4,2,1,1,4,0,9,0,0,1,1,5,4,4,1,0,0,0,0,0,0,0,0,0,0,0,0,0,0,0,0,0,0,0,0,0,0,0,0,0,0,0,0,0,0,0,0,0,0,0,0,0,0,0,0,0,0,0,0,0,0,0,0,0,0,0,0,0,0,0,0,0,0,0,0],"split_type":[0,0,0,0,0,0,0,0,0,0,0,0,0,0,0,0,0,0,0,0,0,0,0,0,0,0,0,0,0,0,0,0,0,0,0,0,0,0,0,0,0,0,0,0,0,0,0,0,0,0,0,0,0,0,0,0,0,0,0,0,0,0,0,0,0,0,0,0,0,0,0,0,0,0,0,0,0,0,0,0,0,0,0,0,0,0,0,0,0,0,0,0,0,0,0,0,0,0,0,0,0,0,0,0,0,0,0,0,0,0,0,0,0,0,0,0,0,0,0,0,0,0,0],"sum_hessian":[1.2901436E5,1.1917299E5,9.841369E3,6.5104582E4,5.406841E4,2.6317576E3,7.209612E3,6.1015688E4,4.0888914E3,5.0852793E4,3.2156177E3,1.7893258E3,8.4243176E2,2.369727E3,4.839885E3,5.9363037E3,5.5079387E4,1.401939E3,2.6869524E3,6.4765594E2,5.0205137E4,1.9886238E2,3.0167554E3,5.8793317E2,1.2013926E3,7.9815826E2,4.4273514E1,1.002137E3,1.36759E3,1.0433002E3,3.7965845E3,4.8357114E3,1.100592E3,3.5616176E4,1.946321E4,5.375529E2,8.6438605E2,4.8233942E2,2.204613E3,3.3163516E2,3.1602078E2,5.177019E2,4.9687438E4,1.9083145E2,8.030926E0,2.3886514E3,6.2810406E2,4.0508615E2,1.8284705E2,3.6519138E2,8.3620123E2,1.3639859E2,6.6175964E2,2.8142889E0,4.1459225E1,9.885581E2,1.3578896E1,9.577544E2,4.098356E2,1.00162244E3,4.1677776E1,3.3351636E2,3.463068E3,3.0480012E3,1.7877104E3,4.1353247E2,6.8705963E2,3.2223385E4,3.392789E3,1.1643681E4,7.8195303E3,4.2976498E2,1.0778796E2,5.620606E2,3.023254E2,1.9775328E2,2.8458615E2,1.9297325E3,2.7488046E2,1.743509E2,1.5728427E2,8.9028755E1,2.26992E2,3.217609E2,1.9594101E2,5.497497E2,4.9137688E4,1.4380759E2,4.702387E1,5.559662E0,2.471264E0,1.7275656E3,6.6108575E2,1.1167527E2,5.1642883E2,2.1926358E2,1.8582257E2,1.0692631E2,7.5920746E1,1.0547851E1,3.5464352E2,1.515749E2,6.8462634E2,4.3932762E1,9.2465836E1,1.438913E1,6.4737054E2,3.5157677E1,6.30155E0,5.217354E2,4.6682272E2,3.1102266E1,9.266521E2,1.6798634E2,2.4184926E2,5.404565E2,4.6116592E2,2.5148916E1,1.652886E1,3.158577E2,1.765864E1,4.0845026E2,3.054618E3],"tree_param":{"num_deleted":"0","num_feature":"10","num_nodes":"123","size_leaf_vector":"1"}},{"base_weights":[7.7426415E-3,1.3090833E-2,-2.7100058E-2,5.539174E-3,4.8446596E-2,-1.8515767E-1,-1.3051822E-3,-4.0517867E-1,6.8798345E-3,9.4638035E-2,1.2657957E-2,-2.5576958E-1,-9.026114E-2,-6.391935E-2,2.29618E-2,-1.4834417E-1,-7.921207E-2,-2.1499783E-2,2.2420714E-2,1.21728584E-1,-6.88265E-2,-1.13132745E-1,8.221995E-2,5.5281673E-2,-2.8180808E-1,-7.8838445E-2,-2.586775E-1,4.3506615E-2,-1.398545E-1,-2.5120895E-2,4.6238724E-2,-4.3710425E-2,-3.1783667E-1,3.6027133E-2,-6.935999E-2,1.6153276E-1,1.2667216E-2,-2.6169937E-2,1.6837336E-1,-7.7917196E-2,7E-1,-3.4794322E-1,3.5163409E-3,1.2242476E-1,3.8967375E-2,7.581038E-2,-5.808199E-2,-2.9434538E-1,6.51844E-2,2.2097759E-2,-9.203707E-2,-2.978539E-1,1.732745E-1,6.691522E-2,-4.6362022E-1,-2.497535E-1,-4.8481084E-2,6.0406532E-2,-5.0981935E-2,-1.4503457E-2,6.434597E-2,4.8200153E-2,-1.7058387E-2,-1.24104746E-1,-1.6244818E-2,5.2084546E-3,5.2820202E-2,2.8496144E-2,-2.9146288E-2,1.315337E-1,2.049592E-2,-5.0854623E-2,5.0172806E-3,-1.4758497E-1,1.1291252E-3,2.8860934E-2,5.659827E-2,-9.548625E-3,-7.905719E-2,7.994058E-2,2.1000001E-1,-1.1219965E-1,7.368475E-2,-3.3324614E-2,3.8501076E-2,-6.557835E-2,3.88926E-2,4.5156315E-2,5.838626E-3,1.9303095E-2,3.6774885E-2,-3.863916E-2,-1.0027996E-2,-7.3155336E-2,-1.0919318E-1,2.872883E-3,5.755201E-2,5.465286E-2,-2.154516E-2,-5.5070627E-2,-1.5165368E-2,-1.15141176E-1,-4.2820726E-2,2.8061777E-2,1.051685E-2,-1.4291719E-1,2.1971075E-2,-4.0155865E-2,-8.517205E-2,-5.1669106E-2,1.9154985E-2,-1.1222726E-3,4.437659E-2,-4.1673347E-2,5.665399E-3,5.7343747E-3,-7.687352E-2,6.643101E-2,1.3085506E-2],"categories":[],"categories_nodes":[],"categories_segments":[],"categories_sizes":[],"default_left":[0,0,0,0,0,0,0,0,0,0,0,0,0,0,0,0,0,0,0,0,0,0,0,0,0,0,0,0,0,0,0,0,0,0,0,0,0,0,0,0,0,0,0,0,0,0,0,0,0,0,0,0,0,0,0,0,0,0,0,0,0,0,0,0,0,0,0,0,0,0,0,0,0,0,0,0,0,0,0,0,0,0,0,0,0,0,0,0,0,0,0,0,0,0,0,0,0,0,0,0,0,0,0,0,0,0,0,0,0,0,0,0,0,0,0,0,0,0,0],"id":11,"left_children":[1,3,5,7,9,11,13,15,17,19,21,23,25,27,29,-1,31,33,35,37,39,41,43,45,47,49,51,53,55,57,59,61,63,65,67,69,71,73,75,77,79,81,83,85,87,89,91,93,95,97,99,101,-1,103,105,107,109,111,113,115,117,-1,-1,-1,-1,-1,-1,-1,-1,-1,-1,-1,-1,-1,-1,-1,-1,-1,-1,-1,-1,-1,-1,-1,-1,-1,-1,-1,-1,-1,-1,-1,-1,-1,-1,-1,-1,-1,-1,-1,-1,-1,-1,-1,-1,-1,-1,-1,-1,-1,-1,-1,-1,-1,-1,-1,-1,-1,-1],"loss_changes":[2.4116947E1,2.995592E1,7.021537E1,5.0910004E1,3.264238E1,1.6167984E1,2.249971E1,8.717419E0,4.064375E1,3.8181847E1,9.737587E1,1.123201E1,1.9657402E0,3.374494E1,1.194521E1,0E0,5.4421455E-1,8.9779945E1,8.079107E1,5.102095E1,1.2626449E1,1.0854049E2,1.2455963E1,2.5529885E-1,5.5791626E0,1.2919955E0,2.3060246E0,2.0373287E1,2.4323162E1,7.7039976E0,7.910222E0,1.6638887E-1,1.8920213E-1,3.8706932E1,8.1316895E1,1.00669205E2,4.1131615E1,2.4735268E1,8.213547E0,1.0422199E1,1.24938965E-1,2.0432388E1,3.7898384E1,9.167286E0,7.511351E0,4.130137E-2,2.5501467E-2,4.248825E0,3.1782156E-1,1.7085766E0,3.2430906E0,7.8358316E-1,0E0,1.386826E0,5.541115E-1,4.315941E0,1.8422174E1,4.5410833E0,1.6429205E1,1.3432142E1,1.8028864E1,0E0,0E0,0E0,0E0,0E0,0E0,0E0,0E0,0E0,0E0,0E0,0E0,0E0,0E0,0E0,0E0,0E0,0E0,0E0,0E0,0E0,0E0,0E0,0E0,0E0,0E0,0E0,0E0,0E0,0E0,0E0,0E0,0E0,0E0,0E0,0E0,0E0,0E0,0E0,0E0,0E0,0E0,0E0,0E0,0E0,0E0,0E0,0E0,0E0,0E0,0E0,0E0,0E0,0E0,0E0,0E0,0E0,0E0],"parents":[2147483647,0,0,1,1,2,2,3,3,4,4,5,5,6,6,7,7,8,8,9,9,10,10,11,11,12,12,13,13,14,14,16,16,17,17,18,18,19,19,20,20,21,21,22,22,23,23,24,24,25,25,26,26,27,27,28,28,29,29,30,30,31,31,32,32,33,33,34,34,35,35,36,36,37,37,38,38,39,39,40,40,41,41,42,42,43,43,44,44,45,45,46,46,47,47,48,48,49,49,50,50,51,51,53,53,54,54,55,55,56,56,57,57,58,58,59,59,60,60],"right_children":[2,4,6,8,10,12,14,16,18,20,22,24,26,28,30,-1,32,34,36,38,40,42,44,46,48,50,52,54,56,58,60,62,64,66,68,70,72,74,76,78,80,82,84,86,88,90,92,94,96,98,100,102,-1,104,106,108,110,112,114,116,118,-1,-1,-1,-1,-1,-1,-1,-1,-1,-1,-1,-1,-1,-1,-1,-1,-1,-1,-1,-1,-1,-1,-1,-1,-1,-1,-1,-1,-1,-1,-1,-1,-1,-1,-1,-1,-1,-1,-1,-1,-1,-1,-1,-1,-1,-1,-1,-1,-1,-1,-1,-1,-1,-1,-1,-1,-1,-1],"split_conditions":[2.3599138E0,1.9484944E0,1.8992262E0,-6.334612E-1,1.5859731E0,1.6029412E0,1.686174E0,1.5441177E0,1.6138669E0,1.8382353E0,1.8028406E0,1.2E0,2.908776E-1,1.25E0,2.1762402E0,-1.4834417E-1,1.0196079E0,1.3811538E0,1.4705882E0,1.2362032E0,1.5815167E0,1.8148888E0,1.6538461E0,1.4134467E0,1.8148888E0,1.5994096E0,6.127559E-1,1.3235294E0,1.8126314E0,1.5510204E0,1.5815167E0,1.8234944E0,1.7058823E0,1.8757378E0,1.4740528E0,3.67915E-2,1.48E0,1.7205882E0,1.3679922E0,1.2115384E0,2.2486238E0,1.6470588E0,1.882353E0,1.48E0,1.6617647E0,1.3679922E0,-4.130812E-1,1.6138669E0,-6.334612E-1,1.768237E0,1.9172444E0,1.8389852E0,1.732745E-1,1.1730769E0,1.4413948E0,1.2794118E0,2.3395057E0,2.7068524E0,1.9484944E0,1.2058823E0,1.4626865E0,4.8200153E-2,-1.7058387E-2,-1.24104746E-1,-1.6244818E-2,5.2084546E-3,5.2820202E-2,2.8496144E-2,-2.9146288E-2,1.315337E-1,2.049592E-2,-5.0854623E-2,5.0172806E-3,-1.4758497E-1,1.1291252E-3,2.8860934E-2,5.659827E-2,-9.548625E-3,-7.905719E-2,7.994058E-2,2.1000001E-1,-1.1219965E-1,7.368475E-2,-3.3324614E-2,3.8501076E-2,-6.557835E-2,3.88926E-2,4.5156315E-2,5.838626E-3,1.9303095E-2,3.6774885E-2,-3.863916E-2,-1.0027996E-2,-7.3155336E-2,-1.0919318E-1,2.872883E-3,5.755201E-2,5.465286E-2,-2.154516E-2,-5.5070627E-2,-1.5165368E-2,-1.15141176E-1,-4.2820726E-2,2.8061777E-2,1.051685E-2,-1.4291719E-1,2.1971075E-2,-4.0155865E-2,-8.517205E-2,-5.1669106E-2,1.9154985E-2,-1.1222726E-3,4.437659E-2,-4.1673347E-2,5.665399E-3,5.7343747E-3,-7.687352E-2,6.643101E-2,1.3085506E-2],"split_indices":[5,5,4,9,1,2,0,7,1,6,0,2,9,3,4,0,3,1,3,1,1,4,6,1,0,1,9,2,1,2,1,5,2,4,4,8,3,7,1,3,5,2,3,3,2,1,8,1,9,0,0,4,0,3,1,3,4,5,0,3,3,0,0,0,0,0,0,0,0,0,0,0,0,0,0,0,0,0,0,0,0,0,0,0,0,0,0,0,0,0,0,0,0,0,0,0,0,0,0,0,0,0,0,0,0,0,0,0,0,0,0,0,0,0,0,0,0,0,0],"split_type":[0,0,0,0,0,0,0,0,0,0,0,0,0,0,0,0,0,0,0,0,0,0,0,0,0,0,0,0,0,0,0,0,0,0,0,0,0,0,0,0,0,0,0,0,0,0,0,0,0,0,0,0,0,0,0,0,0,0,0,0,0,0,0,0,0,0,0,0,0,0,0,0,0,0,0,0,0,0,0,0,0,0,0,0,0,0,0,0,0,0,0,0,0,0,0,0,0,0,0,0,0,0,0,0,0,0,0,0,0,0,0,0,0,0,0,0,0,0,0],"sum_hessian":[1.2941776E5,1.1219671E5,1.7221047E4,9.2451164E4,1.9745545E4,2.4152808E3,1.4805766E4,2.9981607E2,9.215135E4,8.619256E3,1.1126288E4,1.3838622E3,1.0314185E3,4.1349775E3,1.0670788E4,2.3493599E2,6.488008E1,3.2606807E4,5.9544543E4,7.3941055E3,1.2251503E3,3.9616716E3,7.1646167E3,1.06809654E2,1.2770526E3,9.6728156E2,6.413693E1,1.7125908E3,2.4223865E3,3.4806978E3,7.1900903E3,5.750752E1,7.372568E0,1.4808073E4,1.7798732E4,3.9002705E3,5.5644273E4,1.7729569E3,5.621149E3,1.2183347E3,6.8155003E0,1.3142168E3,2.6474548E3,3.7121814E3,3.4524353E3,9.0713806E1,1.6095846E1,1.2326664E3,4.438619E1,1.1177905E2,8.555025E2,6.1881775E1,2.25516E0,1.6378567E3,7.473422E1,1.0989254E3,1.323461E3,8.0780286E2,2.672895E3,1.651202E3,5.538888E3,2.7985177E0,5.4709E1,4.9899645E0,2.3826034E0,1.3067466E4,1.740607E3,2.574334E3,1.5224398E4,9.813168E2,2.9189536E3,1.2112686E3,5.4433004E4,1.0612805E2,1.6668289E3,1.2346796E3,4.386469E3,9.7692395E2,2.4141078E2,2.2718334E0,4.543667E0,1.2593066E3,5.491016E1,1.3803024E3,1.2671523E3,7.632839E1,3.6358528E3,5.128206E2,2.9396147E3,7.4761086E1,1.5952719E1,3.069151E0,1.3026695E1,7.1713226E2,5.155341E2,3.159154E1,1.2794648E1,4.0983208E1,7.0795845E1,2.6574814E2,5.8975433E2,3.8869915E1,2.3011856E1,8.911787E2,7.466779E2,7.310782E1,1.6264074E0,2.5124265E2,8.476828E2,6.294716E2,6.9398944E2,4.666863E2,3.4111652E2,1.183029E3,1.4898658E3,1.450419E3,2.0078304E2,6.445186E2,4.8943696E3],"tree_param":{"num_deleted":"0","num_feature":"10","num_nodes":"119","size_leaf_vector":"1"}},{"base_weights":[6.3395603E-3,-4.972758E-3,1.9195437E-2,-2.3370294E-2,2.4911383E-2,3.919523E-3,5.8300078E-2,-8.022864E-3,-9.751114E-2,8.788805E-2,1.3562809E-2,8.5042275E-2,-1.0566064E-2,1.02050774E-1,-3.1130422E-2,-1.7311089E-2,2.648116E-1,-1.6087027E-1,5.5690125E-2,7E-1,7.917819E-2,2.8467096E-2,-2.541309E-2,4.9064413E-2,3.318144E-1,-1.4786649E-1,-8.811596E-3,1.3002896E-1,-6.354091E-2,-2.7723783E-1,2.928316E-3,4.7433125E-3,-1.2594672E-1,4.0443492E-1,-7.339302E-2,-2.5426278E-1,2.2568507E-2,1.2567328E-1,3.7547597E-3,7E-1,2.3426512E-1,-7.0313536E-2,1.08138E-1,-3.1460676E-1,3.135324E-2,-1.059732E-1,1.2981477E-2,1.3292037E-1,-1.5811777E-2,-3.8873467E-1,3.4347382E-1,-4.5133214E-2,1.5018943E-2,-7.029287E-2,1.3974014E-1,8.826136E-2,-1.7399083E-1,-6.0443017E-3,-1.4858127E-1,-5.5855673E-2,4.8692465E-2,7.2882655E-3,-1.3771755E-2,3.202937E-2,-5.7218123E-2,1.08267196E-1,2.0076354E-1,3.3121143E-2,-1.393812E-1,-9.6223064E-2,-5.2944493E-2,-5.3918418E-2,2.1182612E-2,-3.3474877E-2,5.2417487E-2,1.0341183E-1,-3.0294203E-3,1.5610221E-1,2.1000001E-1,1.7685163E-1,-1.5893743E-3,-1.2615808E-2,-7.8369044E-2,7.790223E-2,2.6923036E-2,-1.2838311E-1,4.9856246E-2,2.7210796E-3,2.0846725E-2,-1.9622479E-2,-5.6870293E-2,9.782771E-3,-1.1134332E-2,4.2831026E-2,-4.5094837E-2,7.097347E-3,-8.4518455E-2,-3.272754E-2,-1.3544987E-1,9.0621956E-2,1.3844131E-1,4.9251933E-2,-1.6019963E-2,-2.2379672E-3,1.7372422E-2,-2.9345283E-2,8.7377265E-2,4.9382962E-2,1.7751515E-2,-8.714674E-2,3.914003E-2,-5.933672E-2,2.1724133E-2,6.2147442E-2,-2.403491E-2,-3.3557083E-2,1.4183041E-5,4.10425E-2,8.075762E-3],"categories":[],"categories_nodes":[],"categories_segments":[],"categories_sizes":[],"default_left":[0,0,0,0,0,0,0,0,0,0,0,0,0,0,0,0,0,0,0,0,0,0,0,0,0,0,0,0,0,0,0,0,0,0,0,0,0,0,0,0,0,0,0,0,0,0,0,0,0,0,0,0,0,0,0,0,0,0,0,0,0,0,0,0,0,0,0,0,0,0,0,0,0,0,0,0,0,0,0,0,0,0,0,0,0,0,0,0,0,0,0,0,0,0,0,0,0,0,0,0,0,0,0,0,0,0,0,0,0,0,0,0,0,0,0,0,0,0,0],"id":12,"left_children":[1,3,5,7,9,11,13,15,17,19,21,23,25,27,29,31,33,35,37,39,41,43,45,47,49,-1,51,53,55,57,59,61,63,65,67,69,71,73,75,77,79,81,83,85,87,89,91,93,95,97,99,101,103,105,107,109,111,113,-1,115,117,-1,-1,-1,-1,-1,-1,-1,-1,-1,-1,-1,-1,-1,-1,-1,-1,-1,-1,-1,-1,-1,-1,-1,-1,-1,-1,-1,-1,-1,-1,-1,-1,-1,-1,-1,-1,-1,-1,-1,-1,-1,-1,-1,-1,-1,-1,-1,-1,-1,-1,-1,-1,-1,-1,-1,-1,-1,-1],"loss_changes":[1.8873945E1,3.7955677E1,3.628681E1,4.862052E1,1.8799595E1,5.1333126E1,6.67681E1,8.97206E1,7.114161E1,2.2547243E1,1.2949501E1,5.8744892E1,3.1361109E1,5.3095192E1,4.6993732E1,8.203173E1,5.507154E1,8.8824646E1,7.794864E0,1.7349167E0,1.7170038E1,1.5976234E1,1.907488E1,3.1433228E1,7.207138E0,0E0,3.1967743E1,1.9079575E1,2.7795284E1,4.0296566E1,1.3254061E1,2.8184612E1,8.712223E1,9.272308E0,2.4602272E1,1.770816E1,1.701941E1,1.0651818E1,5.823121E0,2.8752708E-1,8.760482E-1,3.4634087E0,9.234749E0,7.4063883E0,1.35885725E1,6.7372456E0,4.1084003E0,7.052372E0,3.4204357E1,1.9430113E-1,3.9109116E0,2.5325413E1,2.150117E1,4.5455694E0,1.8724487E1,1.1203129E1,5.64023E0,4.8294487E0,0E0,6.7516713E0,5.311028E0,0E0,0E0,0E0,0E0,0E0,0E0,0E0,0E0,0E0,0E0,0E0,0E0,0E0,0E0,0E0,0E0,0E0,0E0,0E0,0E0,0E0,0E0,0E0,0E0,0E0,0E0,0E0,0E0,0E0,0E0,0E0,0E0,0E0,0E0,0E0,0E0,0E0,0E0,0E0,0E0,0E0,0E0,0E0,0E0,0E0,0E0,0E0,0E0,0E0,0E0,0E0,0E0,0E0,0E0,0E0,0E0,0E0,0E0],"parents":[2147483647,0,0,1,1,2,2,3,3,4,4,5,5,6,6,7,7,8,8,9,9,10,10,11,11,12,12,13,13,14,14,15,15,16,16,17,17,18,18,19,19,20,20,21,21,22,22,23,23,24,24,26,26,27,27,28,28,29,29,30,30,31,31,32,32,33,33,34,34,35,35,36,36,37,37,38,38,39,39,40,40,41,41,42,42,43,43,44,44,45,45,46,46,47,47,48,48,49,49,50,50,51,51,52,52,53,53,54,54,55,55,56,56,57,57,59,59,60,60],"right_children":[2,4,6,8,10,12,14,16,18,20,22,24,26,28,30,32,34,36,38,40,42,44,46,48,50,-1,52,54,56,58,60,62,64,66,68,70,72,74,76,78,80,82,84,86,88,90,92,94,96,98,100,102,104,106,108,110,112,114,-1,116,118,-1,-1,-1,-1,-1,-1,-1,-1,-1,-1,-1,-1,-1,-1,-1,-1,-1,-1,-1,-1,-1,-1,-1,-1,-1,-1,-1,-1,-1,-1,-1,-1,-1,-1,-1,-1,-1,-1,-1,-1,-1,-1,-1,-1,-1,-1,-1,-1,-1,-1,-1,-1,-1,-1,-1,-1,-1,-1],"split_conditions":[1.095472E-1,1.7319297E0,1.7654848E0,1.4852941E0,-4.758496E-1,1.3970588E0,1.6617647E0,1.6301788E0,-6.0241E-2,1.737934E0,2.2986891E0,1.7305515E0,1.4437498E0,4.697851E-1,1.4230769E0,-1.289577E-1,-1.969697E-1,2.3395057E0,1.58E0,2.6864443E0,1.5649619E0,1.5306122E0,1.9172444E0,1.3376892E0,6.684574E-1,-1.4786649E-1,1.4444444E0,1.137255E0,1.6617647E0,1.6944069E0,1.9852941E0,1.7205882E0,1.4589013E0,1.6703105E0,1.8751298E0,1.6227139E0,1.7546479E0,1.4705882E0,1.2352941E0,2.3190973E0,2.2578728E0,1.1730769E0,1.4626865E0,2.0946074E0,1.5441177E0,1.54E0,2.230924E-1,1.445783E-1,2.4117646E0,1.4085095E0,1.5136839E0,1.2941177E0,2.5027707E0,1.8757378E0,1.8382353E0,1.7686404E0,1.7356341E0,1.7794118E0,-1.4858127E-1,2.0109944E0,2.380322E0,7.2882655E-3,-1.3771755E-2,3.202937E-2,-5.7218123E-2,1.08267196E-1,2.0076354E-1,3.3121143E-2,-1.393812E-1,-9.6223064E-2,-5.2944493E-2,-5.3918418E-2,2.1182612E-2,-3.3474877E-2,5.2417487E-2,1.0341183E-1,-3.0294203E-3,1.5610221E-1,2.1000001E-1,1.7685163E-1,-1.5893743E-3,-1.2615808E-2,-7.8369044E-2,7.790223E-2,2.6923036E-2,-1.2838311E-1,4.9856246E-2,2.7210796E-3,2.0846725E-2,-1.9622479E-2,-5.6870293E-2,9.782771E-3,-1.1134332E-2,4.2831026E-2,-4.5094837E-2,7.097347E-3,-8.4518455E-2,-3.272754E-2,-1.3544987E-1,9.0621956E-2,1.3844131E-1,4.9251933E-2,-1.6019963E-2,-2.2379672E-3,1.7372422E-2,-2.9345283E-2,8.7377265E-2,4.9382962E-2,1.7751515E-2,-8.714674E-2,3.914003E-2,-5.933672E-2,2.1724133E-2,6.2147442E-2,-2.403491E-2,-3.3557083E-2,1.4183041E-5,4.10425E-2,8.075762E-3],"split_indices":[9,0,4,3,8,2,7,1,9,0,5,0,1,8,2,9,8,4,6,5,1,2,0,5,9,0,6,7,6,0,2,6,0,1,5,0,1,7,2,4,4,3,3,5,3,3,8,8,3,5,4,3,1,4,6,4,5,6,0,5,1,0,0,0,0,0,0,0,0,0,0,0,0,0,0,0,0,0,0,0,0,0,0,0,0,0,0,0,0,0,0,0,0,0,0,0,0,0,0,0,0,0,0,0,0,0,0,0,0,0,0,0,